{"learner":{"attributes":{},"feature_names":[],"feature_types":[],"gradient_booster":{"model":{"cats":{"enc":[],"feature_segments":[],"sorted_idx":[]},"gbtree_model_param":{"num_parallel_tree":"1","num_trees":"364"},"iteration_indptr":[0,1,2,3,4,5,6,7,8,9,10,11,12,13,14,15,16,17,18,19,20,21,22,23,24,25,26,27,28,29,30,31,32,33,34,35,36,37,38,39,40,41,42,43,44,45,46,47,48,49,50,51,52,53,54,55,56,57,58,59,60,61,62,63,64,65,66,67,68,69,70,71,72,73,74,75,76,77,78,79,80,81,82,83,84,85,86,87,88,89,90,91,92,93,94,95,96,97,98,99,100,101,102,103,104,105,106,107,108,109,110,111,112,113,114,115,116,117,118,119,120,121,122,123,124,125,126,127,128,129,130,131,132,133,134,135,136,137,138,139,140,141,142,143,144,145,146,147,148,149,150,151,152,153,154,155,156,157,158,159,160,161,162,163,164,165,166,167,168,169,170,171,172,173,174,175,176,177,178,179,180,181,182,183,184,185,186,187,188,189,190,191,192,193,194,195,196,197,198,199,200,201,202,203,204,205,206,207,208,209,210,211,212,213,214,215,216,217,218,219,220,221,222,223,224,225,226,227,228,229,230,231,232,233,234,235,236,237,238,239,240,241,242,243,244,245,246,247,248,249,250,251,252,253,254,255,256,257,258,259,260,261,262,263,264,265,266,267,268,269,270,271,272,273,274,275,276,277,278,279,280,281,282,283,284,285,286,287,288,289,290,291,292,293,294,295,296,297,298,299,300,301,302,303,304,305,306,307,308,309,310,311,312,313,314,315,316,317,318,319,320,321,322,323,324,325,326,327,328,329,330,331,332,333,334,335,336,337,338,339,340,341,342,343,344,345,346,347,348,349,350,351,352,353,354,355,356,357,358,359,360,361,362,363,364],"tree_info":[0,0,0,0,0,0,0,0,0,0,0,0,0,0,0,0,0,0,0,0,0,0,0,0,0,0,0,0,0,0,0,0,0,0,0,0,0,0,0,0,0,0,0,0,0,0,0,0,0,0,0,0,0,0,0,0,0,0,0,0,0,0,0,0,0,0,0,0,0,0,0,0,0,0,0,0,0,0,0,0,0,0,0,0,0,0,0,0,0,0,0,0,0,0,0,0,0,0,0,0,0,0,0,0,0,0,0,0,0,0,0,0,0,0,0,0,0,0,0,0,0,0,0,0,0,0,0,0,0,0,0,0,0,0,0,0,0,0,0,0,0,0,0,0,0,0,0,0,0,0,0,0,0,0,0,0,0,0,0,0,0,0,0,0,0,0,0,0,0,0,0,0,0,0,0,0,0,0,0,0,0,0,0,0,0,0,0,0,0,0,0,0,0,0,0,0,0,0,0,0,0,0,0,0,0,0,0,0,0,0,0,0,0,0,0,0,0,0,0,0,0,0,0,0,0,0,0,0,0,0,0,0,0,0,0,0,0,0,0,0,0,0,0,0,0,0,0,0,0,0,0,0,0,0,0,0,0,0,0,0,0,0,0,0,0,0,0,0,0,0,0,0,0,0,0,0,0,0,0,0,0,0,0,0,0,0,0,0,0,0,0,0,0,0,0,0,0,0,0,0,0,0,0,0,0,0,0,0,0,0,0,0,0,0,0,0,0,0,0,0,0,0,0,0,0,0,0,0,0,0,0,0,0,0,0,0,0,0,0,0,0,0,0,0,0,0,0,0,0,0,0,0,0,0,0,0,0,0,0,0,0,0,0,0],"trees":[{"base_weights":[-6.5955697E-3,-6.677848E-1,3.9440736E-1,4.359018E-1,-9.764572E-1,6.651749E-1,-4.0431547E-1,1.0264453E0,-2.482173E-1,-1.1631595E0,-1.4467621E-1,1.1903971E0,4.5774367E-1,-1.3317099E0,4.2032786E-2,1.7287461E-1,5.839529E-2,-1.3814233E-1,9.734798E-2,-1.4438972E-1,1.6076529E-1,2.077844E-1,-6.187393E-2,3.8519397E-2,1.698493E-1,7.996159E-2,9.045976E-4,-2.3300824E-1,-9.891787E-2,4.9758412E-2,-2.3169567E-1],"categories":[],"categories_nodes":[],"categories_segments":[],"categories_sizes":[],"default_left":[0,0,0,0,0,0,0,0,0,0,0,0,0,0,0,0,0,0,0,0,0,0,0,0,0,0,0,0,0,0,0],"id":0,"left_children":[1,3,5,7,9,11,13,15,17,19,21,23,25,27,29,-1,-1,-1,-1,-1,-1,-1,-1,-1,-1,-1,-1,-1,-1,-1,-1],"loss_changes":[7.232198E2,3.5128766E2,3.6750674E2,9.151134E1,1.2483551E2,1.3759814E2,1.7828787E2,2.7140701E1,1.0433989E2,9.082391E1,1.073307E2,7.4312836E1,8.865503E1,4.2247894E1,2.204909E2,0E0,0E0,0E0,0E0,0E0,0E0,0E0,0E0,0E0,0E0,0E0,0E0,0E0,0E0,0E0,0E0],"parents":[2147483647,0,0,1,1,2,2,3,3,4,4,5,5,6,6,7,7,8,8,9,9,10,10,11,11,12,12,13,13,14,14],"right_children":[2,4,6,8,10,12,14,16,18,20,22,24,26,28,30,-1,-1,-1,-1,-1,-1,-1,-1,-1,-1,-1,-1,-1,-1,-1,-1],"split_conditions":[3E0,3E0,4E0,2E0,4.333E1,2E0,5.333E1,3E0,3E0,6E0,4.5E1,1E0,5.75E1,1E0,8.4E1,1.7287461E-1,5.839529E-2,-1.3814233E-1,9.734798E-2,-1.4438972E-1,1.6076529E-1,2.077844E-1,-6.187393E-2,3.8519397E-2,1.698493E-1,7.996159E-2,9.045976E-4,-2.3300824E-1,-9.891787E-2,4.9758412E-2,-2.3169567E-1],"split_indices":[7,2,3,3,1,3,1,6,3,3,1,3,1,0,1,0,0,0,0,0,0,0,0,0,0,0,0,0,0,0,0],"split_type":[0,0,0,0,0,0,0,0,0,0,0,0,0,0,0,0,0,0,0,0,0,0,0,0,0,0,0,0,0,0,0],"sum_hessian":[2.7255083E3,1.0286681E3,1.6968402E3,2.2471722E2,8.039508E2,1.2673812E3,4.29459E2,1.2031148E2,1.0440574E2,6.562172E2,1.4773361E2,3.5734836E2,9.100328E2,1.3882787E2,2.9063116E2,6.556967E1,5.4741806E1,5.6163933E1,4.8241806E1,6.430533E2,1.3163935E1,2.382787E1,1.2390574E2,7.840574E1,2.7894263E2,6.144017E2,2.9563116E2,5.975E1,7.9077866E1,2.4513115E2,4.55E1],"tree_param":{"num_deleted":"0","num_feature":"8","num_nodes":"31","size_leaf_vector":"1"}},{"base_weights":[1.8602345E-2,-5.622783E-1,3.6935514E-1,4.45368E-1,-8.6240757E-1,5.9905505E-1,-5.2142626E-1,9.3697274E-1,-1.922785E-1,3.5695317E-1,-1.0758066E0,6.896054E-1,-8.367384E-1,1.6237E-1,-1.1661996E0,3.835313E-2,1.3868475E-1,-5.6554962E-2,2.3236252E-1,1.4708042E-1,-5.525602E-2,-1.6932221E-1,-6.383361E-2,1.2657407E-1,5.438636E-2,-2.2926223E-1,7.303968E-2,-2.0189954E-1,4.0428758E-2,-1.0769806E-1,-2.2246386E-1],"categories":[],"categories_nodes":[],"categories_segments":[],"categories_sizes":[],"default_left":[0,0,0,0,0,0,0,0,0,0,0,0,0,0,0,0,0,0,0,0,0,0,0,0,0,0,0,0,0,0,0],"id":1,"left_children":[1,3,5,7,9,11,13,15,17,19,21,23,25,27,29,-1,-1,-1,-1,-1,-1,-1,-1,-1,-1,-1,-1,-1,-1,-1,-1],"loss_changes":[5.612727E2,3.140865E2,3.5178345E2,7.5039604E1,2.0846466E2,1.7822992E2,1.5570967E2,1.879631E1,6.515308E1,8.770401E1,1.2774866E2,1.1158136E2,1.3103452E2,5.7869442E1,3.1410461E1,0E0,0E0,0E0,0E0,0E0,0E0,0E0,0E0,0E0,0E0,0E0,0E0,0E0,0E0,0E0,0E0],"parents":[2147483647,0,0,1,1,2,2,3,3,4,4,5,5,6,6,7,7,8,8,9,9,10,10,11,11,12,12,13,13,14,14],"right_children":[2,4,6,8,10,12,14,16,18,20,22,24,26,28,30,-1,-1,-1,-1,-1,-1,-1,-1,-1,-1,-1,-1,-1,-1,-1,-1],"split_conditions":[3E0,3E0,4E0,2E0,1E0,8.25E1,5E0,1E0,6.333E1,4E0,3E0,2E0,9.333E1,3.333E1,7.2E1,3.835313E-2,1.3868475E-1,-5.6554962E-2,2.3236252E-1,1.4708042E-1,-5.525602E-2,-1.6932221E-1,-6.383361E-2,1.2657407E-1,5.438636E-2,-2.2926223E-1,7.303968E-2,-2.0189954E-1,4.0428758E-2,-1.0769806E-1,-2.2246386E-1],"split_indices":[7,2,4,4,4,1,2,0,1,2,5,4,1,1,1,0,0,0,0,0,0,0,0,0,0,0,0,0,0,0,0],"split_type":[0,0,0,0,0,0,0,0,0,0,0,0,0,0,0,0,0,0,0,0,0,0,0,0,0,0,0,0,0,0,0],"sum_hessian":[2.7525505E3,1.0360641E3,1.7164863E3,2.3765034E2,7.9841376E2,1.3648914E3,3.51595E2,1.3390062E2,1.03749725E2,1.18807556E2,6.796062E2,1.2844573E3,8.04341E1,1.710336E2,1.8056142E2,3.7440403E1,9.646021E1,9.239007E1,1.1359654E1,5.704454E1,6.176302E1,4.1000015E2,2.6960605E2,4.866572E2,7.9780005E2,4.5641926E1,3.4792168E1,1.4116117E1,1.5691748E2,1.3414465E2,4.6416748E1],"tree_param":{"num_deleted":"0","num_feature":"8","num_nodes":"31","size_leaf_vector":"1"}},{"base_weights":[-4.9650655E-3,5.6635493E-1,-2.5435227E-1,1.9087742E-1,8.306281E-1,-6.0697484E-1,2.2951864E-1,-1.0096512E0,6.2345856E-1,-1.5423033E-1,9.964654E-1,-1.0795345E0,-3.3449575E-1,3.8775843E-1,-1.2137225E0,2.7910126E-2,-2.2448803E-1,1.0248056E-1,-2.2021113E-1,9.292209E-2,-2.3431946E-1,1.4624141E-1,7.6127644E-3,-1.4798319E-2,-1.5609545E-1,-1.1730438E-1,1.4240144E-2,2.1776879E-1,3.3742614E-2,-2.0675649E-1,6.7461126E-2],"categories":[],"categories_nodes":[],"categories_segments":[],"categories_sizes":[],"default_left":[0,0,0,0,0,0,0,0,0,0,0,0,0,0,0,0,0,0,0,0,0,0,0,0,0,0,0,0,0,0,0],"id":2,"left_children":[1,3,5,7,9,11,13,15,17,19,21,23,25,27,29,-1,-1,-1,-1,-1,-1,-1,-1,-1,-1,-1,-1,-1,-1,-1,-1],"loss_changes":[3.8461044E2,8.121942E1,3.2077637E2,1.774045E2,7.874475E1,1.39604E2,1.8160823E2,9.9955345E1,1.5118005E2,1.2166011E2,9.0571686E1,8.933383E1,2.0565097E2,1.0648385E2,7.519062E1,0E0,0E0,0E0,0E0,0E0,0E0,0E0,0E0,0E0,0E0,0E0,0E0,0E0,0E0,0E0,0E0],"parents":[2147483647,0,0,1,1,2,2,3,3,4,4,5,5,6,6,7,7,8,8,9,9,10,10,11,11,12,12,13,13,14,14],"right_children":[2,4,6,8,10,12,14,16,18,20,22,24,26,28,30,-1,-1,-1,-1,-1,-1,-1,-1,-1,-1,-1,-1,-1,-1,-1,-1],"split_conditions":[2E0,3.667E1,4.8E1,1E0,1E0,3E0,8.4E1,3E0,3.25E1,4.5E1,3E0,2.25E1,1E0,5E1,1E2,2.7910126E-2,-2.2448803E-1,1.0248056E-1,-2.2021113E-1,9.292209E-2,-2.3431946E-1,1.4624141E-1,7.6127644E-3,-1.4798319E-2,-1.5609545E-1,-1.1730438E-1,1.4240144E-2,2.1776879E-1,3.3742614E-2,-2.0675649E-1,6.7461126E-2],"split_indices":[4,1,1,0,3,5,1,2,1,1,3,1,0,1,1,0,0,0,0,0,0,0,0,0,0,0,0,0,0,0,0],"split_type":[0,0,0,0,0,0,0,0,0,0,0,0,0,0,0,0,0,0,0,0,0,0,0,0,0,0,0,0,0,0,0],"sum_hessian":[2.6971877E3,8.191658E2,1.878022E3,3.3917044E2,4.7999533E2,1.0861827E3,7.918393E2,8.945116E1,2.4971927E2,6.918762E1,4.108077E2,3.9605148E2,6.901312E2,7.1432434E2,7.751496E1,3.743842E1,5.2012737E1,2.2831265E2,2.1406624E1,4.6086452E1,2.310117E1,3.2751953E2,8.328818E1,7.883991E1,3.1721158E2,2.8239685E2,4.0773438E2,4.637942E1,6.679449E2,5.9796497E1,1.7718462E1],"tree_param":{"num_deleted":"0","num_feature":"8","num_nodes":"31","size_leaf_vector":"1"}},{"base_weights":[1.0146974E-2,5.2064186E-1,-2.1302761E-1,-4.6632115E-2,7.304996E-1,-5.173459E-1,2.0779233E-1,-1.1631603E0,3.9621016E-1,8.909494E-1,-1.3901228E-1,-9.7600454E-1,-2.6227826E-1,3.4896034E-1,-1.1070081E0,1.596024E-1,-2.1700194E-1,1.4754601E-1,1.5875958E-2,6.100122E-3,1.2529734E-1,5.222754E-2,-2.2083613E-1,-1.1796435E-2,-1.4197594E-1,-1.0424225E-1,1.7984137E-2,1.9586217E-1,3.051487E-2,-1.899881E-1,5.9898533E-2],"categories":[],"categories_nodes":[],"categories_segments":[],"categories_sizes":[],"default_left":[0,0,0,0,0,0,0,0,0,0,0,0,0,0,0,0,0,0,0,0,0,0,0,0,0,0,0,0,0,0,0],"id":3,"left_children":[1,3,5,7,9,11,13,15,17,19,21,23,25,27,29,-1,-1,-1,-1,-1,-1,-1,-1,-1,-1,-1,-1,-1,-1,-1,-1],"loss_changes":[3.0709915E2,9.764905E1,2.4031444E2,1.10498276E2,8.364749E1,1.2709433E2,1.466692E2,1.0867114E2,3.5414024E1,6.999307E1,9.486807E1,7.5029175E1,1.7898555E2,8.464185E1,6.195862E1,0E0,0E0,0E0,0E0,0E0,0E0,0E0,0E0,0E0,0E0,0E0,0E0,0E0,0E0,0E0,0E0],"parents":[2147483647,0,0,1,1,2,2,3,3,4,4,5,5,6,6,7,7,8,8,9,9,10,10,11,11,12,12,13,13,14,14],"right_children":[2,4,6,8,10,12,14,16,18,20,22,24,26,28,30,-1,-1,-1,-1,-1,-1,-1,-1,-1,-1,-1,-1,-1,-1,-1,-1],"split_conditions":[2E0,3E0,4.8E1,2.8E1,3E0,3E0,8.4E1,1.5E1,2E0,1E0,6.75E1,2.25E1,1E0,5E1,1E2,1.596024E-1,-2.1700194E-1,1.4754601E-1,1.5875958E-2,6.100122E-3,1.2529734E-1,5.222754E-2,-2.2083613E-1,-1.1796435E-2,-1.4197594E-1,-1.0424225E-1,1.7984137E-2,1.9586217E-1,3.051487E-2,-1.899881E-1,5.9898533E-2],"split_indices":[4,5,1,1,3,5,1,1,2,3,1,1,0,1,1,0,0,0,0,0,0,0,0,0,0,0,0,0,0,0,0],"split_type":[0,0,0,0,0,0,0,0,0,0,0,0,0,0,0,0,0,0,0,0,0,0,0,0,0,0,0,0,0,0,0],"sum_hessian":[2.6933472E3,8.1884186E2,1.8745055E3,2.213524E2,5.9748944E2,1.0876865E3,7.86819E2,6.2352947E1,1.5899945E2,5.043882E2,9.310121E1,3.8759967E2,7.000868E2,7.112606E2,7.555835E1,1.2842906E1,4.9510044E1,3.662363E1,1.2237582E2,8.311575E1,4.2127246E2,7.0283775E1,2.2817434E1,7.824822E1,3.0935147E2,2.807581E2,4.193287E2,4.5610634E1,6.6564996E2,5.7832508E1,1.7725843E1],"tree_param":{"num_deleted":"0","num_feature":"8","num_nodes":"31","size_leaf_vector":"1"}},{"base_weights":[8.483757E-3,-4.2781124E-1,2.693118E-1,3.7616715E-1,-6.6998523E-1,4.616925E-1,-4.687418E-1,7.201005E-1,-6.0773093E-2,2.7981296E-1,-8.4125656E-1,5.311646E-1,-6.6244936E-1,1.122479E-1,-1.0261364E0,2.6397346E-2,1.0844752E-1,1.2529705E-1,-6.514812E-2,-2.7205974E-2,1.5355112E-1,-1.0547268E-1,1.3639596E-1,1.366002E-1,5.1148627E-2,-1.8877605E-1,5.7987787E-2,-1.7598543E-1,3.021527E-2,-1.6609934E-1,-3.6661997E-2],"categories":[],"categories_nodes":[],"categories_segments":[],"categories_sizes":[],"default_left":[0,0,0,0,0,0,0,0,0,0,0,0,0,0,0,0,0,0,0,0,0,0,0,0,0,0,0,0,0,0,0],"id":4,"left_children":[1,3,5,7,9,11,13,15,17,19,21,23,25,27,29,-1,-1,-1,-1,-1,-1,-1,-1,-1,-1,-1,-1,-1,-1,-1,-1],"loss_changes":[3.0319083E2,1.9436685E2,2.3699152E2,3.4832497E1,1.2494571E2,1.0372586E2,1.11952354E2,1.2281982E1,5.6787724E1,6.1224228E1,6.2792664E1,7.683081E1,8.370579E1,3.905745E1,4.6791946E1,0E0,0E0,0E0,0E0,0E0,0E0,0E0,0E0,0E0,0E0,0E0,0E0,0E0,0E0,0E0,0E0],"parents":[2147483647,0,0,1,1,2,2,3,3,4,4,5,5,6,6,7,7,8,8,9,9,10,10,11,11,12,12,13,13,14,14],"right_children":[2,4,6,8,10,12,14,16,18,20,22,24,26,28,30,-1,-1,-1,-1,-1,-1,-1,-1,-1,-1,-1,-1,-1,-1,-1,-1],"split_conditions":[3E0,3E0,4E0,2E0,1E0,8.25E1,5E0,1E0,2.25E1,4.333E1,6E0,2.5E1,9.333E1,3.333E1,5E0,2.6397346E-2,1.0844752E-1,1.2529705E-1,-6.514812E-2,-2.7205974E-2,1.5355112E-1,-1.0547268E-1,1.3639596E-1,1.366002E-1,5.1148627E-2,-1.8877605E-1,5.7987787E-2,-1.7598543E-1,3.021527E-2,-1.6609934E-1,-3.6661997E-2],"split_indices":[7,2,4,4,4,1,2,0,1,1,3,1,1,1,3,0,0,0,0,0,0,0,0,0,0,0,0,0,0,0,0],"split_type":[0,0,0,0,0,0,0,0,0,0,0,0,0,0,0,0,0,0,0,0,0,0,0,0,0,0,0,0,0,0,0],"sum_hessian":[2.6620754E3,9.9574976E2,1.6663256E3,2.3036534E2,7.6538446E2,1.3221156E3,3.4420993E2,1.285025E2,1.0186284E2,1.1682498E2,6.4855945E2,1.2457112E3,7.640448E1,1.6896819E2,1.7524174E2,3.6695633E1,9.180687E1,3.0599478E1,7.126336E1,7.83513E1,3.8473675E1,6.339846E2,1.4574846E1,1.7149567E2,1.0742155E3,4.205828E1,3.43462E1,1.2996807E1,1.5597137E2,1.1451139E2,6.0730347E1],"tree_param":{"num_deleted":"0","num_feature":"8","num_nodes":"31","size_leaf_vector":"1"}},{"base_weights":[-3.3899348E-3,4.4881362E-1,-2.0400177E-1,1.03546016E-1,6.712266E-1,-6.1621004E-1,3.354971E-2,5.701879E-1,-9.2264295E-1,8.3990854E-1,-2.659374E-1,-7.255331E-1,5.372475E-1,2.2696039E-1,-4.2490476E-1,-4.358775E-3,9.692428E-2,-1.9569586E-1,7.749964E-2,2.2378588E-2,1.1621304E-1,-2.421969E-1,3.6607955E-2,-9.172174E-2,1.5114303E-1,1.5117735E-1,-3.0518431E-2,1.6421922E-1,1.7869875E-2,1.0995293E-2,-1.10043004E-1],"categories":[],"categories_nodes":[],"categories_segments":[],"categories_sizes":[],"default_left":[0,0,0,0,0,0,0,0,0,0,0,0,0,0,0,0,0,0,0,0,0,0,0,0,0,0,0,0,0,0,0],"id":5,"left_children":[1,3,5,7,9,11,13,15,17,19,21,23,25,27,29,-1,-1,-1,-1,-1,-1,-1,-1,-1,-1,-1,-1,-1,-1,-1,-1],"loss_changes":[2.3756172E2,6.172081E1,1.7764645E2,1.5218272E2,7.758708E1,8.4062836E1,1.0223791E2,3.272029E1,1.149953E2,3.750479E1,7.76573E1,5.8674835E1,3.4345737E1,7.1400024E1,8.908583E1,0E0,0E0,0E0,0E0,0E0,0E0,0E0,0E0,0E0,0E0,0E0,0E0,0E0,0E0,0E0,0E0],"parents":[2147483647,0,0,1,1,2,2,3,3,4,4,5,5,6,6,7,7,8,8,9,9,10,10,11,11,12,12,13,13,14,14],"right_children":[2,4,6,8,10,12,14,16,18,20,22,24,26,28,30,-1,-1,-1,-1,-1,-1,-1,-1,-1,-1,-1,-1,-1,-1,-1,-1],"split_conditions":[2E0,3E0,3E0,4E0,3E0,5.333E1,4E0,2.8E1,4.333E1,1E0,6.333E1,6E0,5.75E1,1.75E1,5E0,-4.358775E-3,9.692428E-2,-1.9569586E-1,7.749964E-2,2.2378588E-2,1.1621304E-1,-2.421969E-1,3.6607955E-2,-9.172174E-2,1.5114303E-1,1.5117735E-1,-3.0518431E-2,1.6421922E-1,1.7869875E-2,1.0995293E-2,-1.10043004E-1],"split_indices":[4,7,7,2,3,1,4,1,1,3,1,3,1,1,2,0,0,0,0,0,0,0,0,0,0,0,0,0,0,0,0],"split_type":[0,0,0,0,0,0,0,0,0,0,0,0,0,0,0,0,0,0,0,0,0,0,0,0,0,0,0,0,0,0,0],"sum_hessian":[2.6164895E3,8.0363544E2,1.8128541E3,3.1549036E2,4.8814508E2,6.6213605E2,1.150718E3,2.1720789E2,9.828248E1,4.1378192E2,7.436315E1,6.051858E2,5.695029E1,8.096869E2,3.4103122E2,6.304488E1,1.5416301E2,6.722813E1,3.105435E1,7.347092E1,3.40311E2,1.749304E1,5.6870113E1,5.917986E2,1.3387189E1,2.920079E1,2.77495E1,4.8952793E1,7.607341E2,1.6844678E2,1.7258443E2],"tree_param":{"num_deleted":"0","num_feature":"8","num_nodes":"31","size_leaf_vector":"1"}},{"base_weights":[5.7007335E-3,-3.4848246E-1,2.1368553E-1,3.3166292E-1,-5.571259E-1,3.6966923E-1,-3.8270912E-1,2.4623324E-1,2.0982312E-1,2.6161763E-1,-7.076601E-1,4.3253684E-1,-6.5086526E-1,8.539516E-2,-8.429847E-1,6.753806E-2,-2.4813337E-2,1.1390957E-1,-4.819366E-2,-1.1907512E-1,-3.456474E-2,1.1459408E-1,4.1314304E-2,-1.7843981E-1,4.5899823E-2,2.500137E-2,-1.7693835E-1,-1.4187808E-1,-2.2347186E-2],"categories":[],"categories_nodes":[],"categories_segments":[],"categories_sizes":[],"default_left":[0,0,0,0,0,0,0,0,0,0,0,0,0,0,0,0,0,0,0,0,0,0,0,0,0,0,0,0,0],"id":6,"left_children":[1,3,5,7,9,11,13,15,-1,17,19,21,23,25,27,-1,-1,-1,-1,-1,-1,-1,-1,-1,-1,-1,-1,-1,-1],"loss_changes":[1.9106584E2,1.3637875E2,1.5217316E2,2.7255014E1,9.0760544E1,8.345178E1,7.318921E1,3.1686857E1,0E0,5.4026146E1,7.618021E1,5.455829E1,6.759566E1,3.3783546E1,3.9288612E1,0E0,0E0,0E0,0E0,0E0,0E0,0E0,0E0,0E0,0E0,0E0,0E0,0E0,0E0],"parents":[2147483647,0,0,1,1,2,2,3,3,4,4,5,5,6,6,7,7,9,9,10,10,11,11,12,12,13,13,14,14],"right_children":[2,4,6,8,10,12,14,16,-1,18,20,22,24,26,28,-1,-1,-1,-1,-1,-1,-1,-1,-1,-1,-1,-1,-1,-1],"split_conditions":[3E0,3E0,4E0,6.333E1,1E0,8.25E1,5E0,2E0,2.0982312E-1,4E0,3E0,2.5E1,9.333E1,8.4E1,5E0,6.753806E-2,-2.4813337E-2,1.1390957E-1,-4.819366E-2,-1.1907512E-1,-3.456474E-2,1.1459408E-1,4.1314304E-2,-1.7843981E-1,4.5899823E-2,2.500137E-2,-1.7693835E-1,-1.4187808E-1,-2.2347186E-2],"split_indices":[7,2,4,1,4,1,2,4,0,2,5,1,1,1,3,0,0,0,0,0,0,0,0,0,0,0,0,0,0],"split_type":[0,0,0,0,0,0,0,0,0,0,0,0,0,0,0,0,0,0,0,0,0,0,0,0,0,0,0,0,0],"sum_hessian":[2.5915093E3,9.585033E2,1.633006E3,2.248566E2,7.336467E2,1.2947815E3,3.382245E2,2.1345392E2,1.1402684E1,1.1381323E2,6.198335E2,1.2202454E3,7.4536125E1,1.6813065E2,1.7009384E2,1.24717445E2,8.8736465E1,5.5395493E1,5.8417744E1,3.6140747E2,2.58426E2,1.6505319E2,1.0551923E3,4.0636555E1,3.389957E1,1.5663423E2,1.14964E1,1.0993867E2,6.015518E1],"tree_param":{"num_deleted":"0","num_feature":"8","num_nodes":"29","size_leaf_vector":"1"}},{"base_weights":[-2.1408165E-2,-2.70266E-1,2.4701366E-1,-5.686715E-2,-1.3049734E0,3.4558028E-1,-1.071155E0,-7.2248006E-1,2.3669313E-1,-8.771293E-1,-1.6959262E0,1.5735697E0,2.543295E-1,-1.7319383E-1,4.1163042E-2,-1.2471029E-3,-1.3457182E-1,-5.1867176E-2,7.859984E-2,-2.1590905E-1,-6.0111467E-2,-1.7463459E-1,-2.2412936E-1,1.5609513E-1,2.0505317E-1,-2.1716571E-1,4.151614E-2],"categories":[],"categories_nodes":[],"categories_segments":[],"categories_sizes":[],"default_left":[0,0,0,0,0,0,0,0,0,0,0,0,0,0,0,0,0,0,0,0,0,0,0,0,0,0,0],"id":7,"left_children":[1,3,5,7,9,11,13,15,17,19,21,23,25,-1,-1,-1,-1,-1,-1,-1,-1,-1,-1,-1,-1,-1,-1],"loss_changes":[1.6839449E2,2.8875058E2,1.5798773E2,2.123083E2,3.576413E1,1.2610147E2,4.719802E1,9.745639E1,2.1668054E2,3.7066605E1,1.943512E0,6.052551E-1,2.1039798E2,0E0,0E0,0E0,0E0,0E0,0E0,0E0,0E0,0E0,0E0,0E0,0E0,0E0,0E0],"parents":[2147483647,0,0,1,1,2,2,3,3,4,4,5,5,6,6,7,7,8,8,9,9,10,10,11,11,12,12],"right_children":[2,4,6,8,10,12,14,16,18,20,22,24,26,-1,-1,-1,-1,-1,-1,-1,-1,-1,-1,-1,-1,-1,-1],"split_conditions":[4.333E1,3.75E1,8.4E1,1E0,3E0,4.5E1,1E2,2.5E1,3E0,4E1,3E0,1E0,4.667E1,-1.7319383E-1,4.1163042E-2,-1.2471029E-3,-1.3457182E-1,-5.1867176E-2,7.859984E-2,-2.1590905E-1,-6.0111467E-2,-1.7463459E-1,-2.2412936E-1,1.5609513E-1,2.0505317E-1,-2.1716571E-1,4.151614E-2],"split_indices":[1,1,1,0,3,1,1,1,5,1,7,0,1,0,0,0,0,0,0,0,0,0,0,0,0,0,0],"split_type":[0,0,0,0,0,0,0,0,0,0,0,0,0,0,0,0,0,0,0,0,0,0,0,0,0,0,0],"sum_hessian":[2.518717E3,1.3069846E3,1.2117324E3,1.0844816E3,2.2250313E2,1.1281841E3,8.35483E1,3.314194E2,7.5306213E2,1.07943726E2,1.14559395E2,7.679882E1,1.0513853E3,6.555453E1,1.799378E1,1.2184355E2,2.0957584E2,2.915702E2,4.6149197E2,2.924285E1,7.870088E1,5.741348E1,5.714592E1,3.2704784E1,4.4094036E1,4.5213882E1,1.0061714E3],"tree_param":{"num_deleted":"0","num_feature":"8","num_nodes":"27","size_leaf_vector":"1"}},{"base_weights":[-5.0511584E-3,-3.3194968E-1,1.795722E-1,2.6852387E-1,-5.1476175E-1,6.4135045E-1,6.2438454E-2,1.8710685E-1,1.8684685E-1,-9.815788E-1,-2.7400142E-1,1.1810968E0,4.50488E-1,9.204575E-2,-1.8801841E-1,9.88274E-2,-4.5828865E-4,-1.3260695E-1,1.4555892E-1,2.5241292E-1,-4.821976E-2,1.6972284E-1,1.0550908E-1,-2.7937925E-1,7.75213E-2,1.9082217E-2,-4.0963117E-2],"categories":[],"categories_nodes":[],"categories_segments":[],"categories_sizes":[],"default_left":[0,0,0,0,0,0,0,0,0,0,0,0,0,0,0,0,0,0,0,0,0,0,0,0,0,0,0],"id":8,"left_children":[1,3,5,7,9,11,13,15,-1,17,19,21,23,25,-1,-1,-1,-1,-1,-1,-1,-1,-1,-1,-1,-1,-1],"loss_changes":[1.5073167E2,9.910383E1,8.628845E1,2.2126884E1,7.7412155E1,3.2671036E1,6.2306023E1,2.4666166E1,0E0,7.2063965E1,1.4646706E2,4.6877823E0,1.3842714E2,3.7745277E1,0E0,0E0,0E0,0E0,0E0,0E0,0E0,0E0,0E0,0E0,0E0,0E0,0E0],"parents":[2147483647,0,0,1,1,2,2,3,3,4,4,5,5,6,6,7,7,9,9,10,10,11,11,12,12,13,13],"right_children":[2,4,6,8,10,12,14,16,-1,18,20,22,24,26,-1,-1,-1,-1,-1,-1,-1,-1,-1,-1,-1,-1,-1],"split_conditions":[3E0,3E0,2E0,6.333E1,2.8E1,2.5E1,7E0,2.25E1,1.8684685E-1,6E0,3E1,1E0,3.333E1,7.75E1,-1.8801841E-1,9.88274E-2,-4.5828865E-4,-1.3260695E-1,1.4555892E-1,2.5241292E-1,-4.821976E-2,1.6972284E-1,1.0550908E-1,-2.7937925E-1,7.75213E-2,1.9082217E-2,-4.0963117E-2],"split_indices":[7,2,3,1,1,1,2,1,0,3,1,3,1,1,0,0,0,0,0,0,0,0,0,0,0,0,0],"split_type":[0,0,0,0,0,0,0,0,0,0,0,0,0,0,0,0,0,0,0,0,0,0,0,0,0,0,0],"sum_hessian":[2.4953088E3,9.003136E2,1.5949951E3,2.1000493E2,6.9030865E2,3.217255E2,1.2732697E3,1.9886804E2,1.1136891E1,2.3373206E2,4.565766E2,8.255494E1,2.3917056E2,1.2518069E3,2.1462807E1,4.4540436E1,1.543276E2,2.206804E2,1.305165E1,2.2991531E1,4.3358508E2,4.220358E1,4.035136E1,1.5343204E1,2.2382736E2,1.082271E3,1.6953586E2],"tree_param":{"num_deleted":"0","num_feature":"8","num_nodes":"27","size_leaf_vector":"1"}},{"base_weights":[6.3844644E-3,-2.1369652E-1,2.3744896E-1,-6.697451E-2,-8.5216254E-1,1.4425608E0,1.5797874E-1,4.4002574E-2,-1.8536477E-1,-1.9230013E-1,-5.173033E-1,1.260252E0,1.914915E-1,-1.99462E-1,2.3276733E-1,-8.240202E-3,1.6557981E-1,-5.7062726E-3,-2.0004848E-1,1.6032311E-1,1.0499694E-1,-2.2789583E-1,3.3259697E-2],"categories":[],"categories_nodes":[],"categories_segments":[],"categories_sizes":[],"default_left":[0,0,0,0,0,0,0,0,0,0,0,0,0,0,0,0,0,0,0,0,0,0,0],"id":9,"left_children":[1,3,5,7,9,11,13,15,-1,-1,17,19,-1,-1,21,-1,-1,-1,-1,-1,-1,-1,-1],"loss_changes":[1.26049576E2,1.1886434E2,1.155517E2,1.7158075E2,6.0106964E1,9.385681E-2,1.5662256E2,1.477935E2,0E0,0E0,9.137431E1,9.062958E-2,0E0,0E0,1.1243083E2,0E0,0E0,0E0,0E0,0E0,0E0,0E0,0E0],"parents":[2147483647,0,0,1,1,2,2,3,3,4,4,5,5,6,6,7,7,10,10,11,11,14,14],"right_children":[2,4,6,8,10,12,14,16,-1,-1,18,20,-1,-1,22,-1,-1,-1,-1,-1,-1,-1,-1],"split_conditions":[4.333E1,3.75E1,4.5E1,6E0,4E1,6E0,4.667E1,3.6E1,-1.8536477E-1,-1.9230013E-1,4.25E1,3E0,1.914915E-1,-1.99462E-1,1E0,-8.240202E-3,1.6557981E-1,-5.7062726E-3,-2.0004848E-1,1.6032311E-1,1.0499694E-1,-2.2789583E-1,3.3259697E-2],"split_indices":[1,1,1,2,1,2,1,1,0,0,1,5,0,0,3,0,0,0,0,0,0,0,0],"split_type":[0,0,0,0,0,0,0,0,0,0,0,0,0,0,0,0,0,0,0,0,0,0,0],"sum_hessian":[2.4765105E3,1.268444E3,1.2080665E3,1.0324086E3,2.3603542E2,7.356864E1,1.1344979E3,9.6207446E2,7.0334076E1,7.034748E1,1.6568793E2,4.0100475E1,3.3468166E1,4.3409397E1,1.0910885E3,8.885319E2,7.3542534E1,1.1904211E2,4.664582E1,2.9973482E1,1.0126993E1,2.2634184E1,1.0684543E3],"tree_param":{"num_deleted":"0","num_feature":"8","num_nodes":"23","size_leaf_vector":"1"}},{"base_weights":[1.5147139E-2,3.4761477E-1,-1.2760217E-1,3.7827283E-1,-1.9224422E-1,-4.0580687E-1,1.9308925E-2,2.2039237E-2,5.196725E-1,5.3747833E-2,-5.5318755E-1,1.66651E-1,-3.4860495E-1,-3.4013983E-2,1.1167624E-1,-2.1657698E-2,7.599307E-2,7.063615E-2,-1.6240434E-1,-1.02018125E-1,-3.0090597E-2,1.1207608E-2,1.4668483E-1,6.2120375E-3,-9.019917E-2],"categories":[],"categories_nodes":[],"categories_segments":[],"categories_sizes":[],"default_left":[0,0,0,0,0,0,0,0,0,0,0,0,0,0,0,0,0,0,0,0,0,0,0,0,0],"id":10,"left_children":[1,3,5,7,-1,9,11,13,15,17,19,21,23,-1,-1,-1,-1,-1,-1,-1,-1,-1,-1,-1,-1],"loss_changes":[1.1733263E2,4.5478104E1,7.070439E1,3.6865517E1,0E0,4.0521614E1,6.1483597E1,5.9654377E1,4.458429E1,1.1350457E2,4.1349106E1,6.239995E1,5.357389E1,0E0,0E0,0E0,0E0,0E0,0E0,0E0,0E0,0E0,0E0,0E0,0E0],"parents":[2147483647,0,0,1,1,2,2,3,3,5,5,6,6,7,7,8,8,9,9,10,10,11,11,12,12],"right_children":[2,4,6,8,-1,10,12,14,16,18,20,22,24,-1,-1,-1,-1,-1,-1,-1,-1,-1,-1,-1,-1],"split_conditions":[2E0,5E0,3E0,3E0,-1.9224422E-1,2E0,4E0,2E0,1E0,3E0,3E0,4E0,5E0,-3.4013983E-2,1.1167624E-1,-2.1657698E-2,7.599307E-2,7.063615E-2,-1.6240434E-1,-1.02018125E-1,-3.0090597E-2,1.1207608E-2,1.4668483E-1,6.2120375E-3,-9.019917E-2],"split_indices":[4,3,7,5,0,7,4,3,3,4,5,3,2,0,0,0,0,0,0,0,0,0,0,0,0],"split_type":[0,0,0,0,0,0,0,0,0,0,0,0,0,0,0,0,0,0,0,0,0,0,0,0,0],"sum_hessian":[2.470138E3,7.415245E2,1.7286134E3,7.310248E2,1.0499733E1,5.967022E2,1.1319111E3,2.0807805E2,5.229467E2,1.4506557E2,4.516366E2,8.0866095E2,3.232502E2,1.5633075E2,5.17473E1,7.667865E1,4.4626807E2,1.0552852E2,3.9537052E1,2.2217342E2,2.294632E2,7.586553E2,5.0005657E1,1.64229E2,1.5902122E2],"tree_param":{"num_deleted":"0","num_feature":"8","num_nodes":"25","size_leaf_vector":"1"}},{"base_weights":[5.2435626E-3,1.06909856E-1,-4.4537422E-1,-1.5040551E-1,2.5978267E-1,-1.0503942E0,-2.8296912E-1,-6.405565E-1,1.159411E-1,7.825272E-1,1.8657929E-1,-1.6800393E-1,1.1160671E-1,2.0262472E-1,-3.5438028E-1,7.544394E-3,-1.434328E-1,2.0101315E-1,-1.6565045E-2,4.6459336E-2,1.6035864E-1,-2.5243065E-1,2.8104564E-2,-1.6850343E-1,-2.8341869E-2],"categories":[],"categories_nodes":[],"categories_segments":[],"categories_sizes":[],"default_left":[0,0,0,0,0,0,0,0,0,0,0,0,0,0,0,0,0,0,0,0,0,0,0,0,0],"id":11,"left_children":[1,3,5,7,9,11,13,15,17,19,21,-1,-1,-1,23,-1,-1,-1,-1,-1,-1,-1,-1,-1,-1],"loss_changes":[1.1140139E2,7.8086555E1,4.365651E1,9.6703415E1,4.7480766E1,7.011957E1,5.1048824E1,1.04428246E2,1.940422E2,3.3360565E1,1.27810974E2,0E0,0E0,0E0,4.1859516E1,0E0,0E0,0E0,0E0,0E0,0E0,0E0,0E0,0E0,0E0],"parents":[2147483647,0,0,1,1,2,2,3,3,4,4,5,5,6,6,7,7,8,8,9,9,10,10,14,14],"right_children":[2,4,6,8,10,12,14,16,18,20,22,-1,-1,-1,24,-1,-1,-1,-1,-1,-1,-1,-1,-1,-1],"split_conditions":[4E0,3E0,3.333E1,2.8E1,2.5E1,6E0,3.5E1,2.25E1,3E1,2.333E1,2.8E1,-1.6800393E-1,1.1160671E-1,2.0262472E-1,4E1,7.544394E-3,-1.434328E-1,2.0101315E-1,-1.6565045E-2,4.6459336E-2,1.6035864E-1,-2.5243065E-1,2.8104564E-2,-1.6850343E-1,-2.8341869E-2],"split_indices":[4,7,1,1,1,4,1,1,1,1,1,0,0,0,1,0,0,0,0,0,0,0,0,0,0],"split_type":[0,0,0,0,0,0,0,0,0,0,0,0,0,0,0,0,0,0,0,0,0,0,0,0,0],"sum_hessian":[2.429429E3,1.9828967E3,4.4653238E2,7.3901135E2,1.2438854E3,9.322309E1,3.533093E2,2.5964557E2,4.7936575E2,1.5148279E2,1.0924026E3,7.903055E1,1.4192545E1,1.1361626E1,3.4194766E2,1.1640144E2,1.4324414E2,6.594046E1,4.134253E2,9.088978E1,6.059301E1,2.2267942E1,1.0701346E3,3.222115E1,3.097265E2],"tree_param":{"num_deleted":"0","num_feature":"8","num_nodes":"25","size_leaf_vector":"1"}},{"base_weights":[-1.2071314E-2,-1.8833633E-1,1.719133E-1,-1.3536712E-2,-6.146425E-1,1.353102E0,9.599715E-2,-1.7524184E-1,2.5975626E0,-1.6746675E0,-3.509294E-1,1.1015885E0,1.7724983E-1,-1.8714528E-1,1.6163926E-1,-1.3955736E-3,-1.9234607E-1,4.4955614E-1,2.2094958E-1,-1.6998897E-1,-2.3516823E-1,1.387336E-1,-9.024616E-2,1.5571132E-1,7.390525E-2,-2.0621234E-1,2.4382556E-2],"categories":[],"categories_nodes":[],"categories_segments":[],"categories_sizes":[],"default_left":[0,0,0,0,0,0,0,0,0,0,0,0,0,0,0,0,0,0,0,0,0,0,0,0,0,0,0],"id":12,"left_children":[1,3,5,7,9,11,13,15,17,19,21,23,-1,-1,25,-1,-1,-1,-1,-1,-1,-1,-1,-1,-1,-1,-1],"loss_changes":[7.691358E1,9.0248184E1,1.0391745E2,3.6366858E2,9.7805756E1,6.67099E-1,1.2017616E2,1.9167427E2,3.624002E1,2.0710602E0,1.774903E2,2.0575562E0,0E0,0E0,8.799005E1,0E0,0E0,0E0,0E0,0E0,0E0,0E0,0E0,0E0,0E0,0E0,0E0],"parents":[2147483647,0,0,1,1,2,2,3,3,4,4,5,5,6,6,7,7,8,8,9,9,10,10,11,11,14,14],"right_children":[2,4,6,8,10,12,14,16,18,20,22,24,-1,-1,26,-1,-1,-1,-1,-1,-1,-1,-1,-1,-1,-1,-1],"split_conditions":[4.333E1,3.5E1,4.5E1,3.333E1,3.6E1,1E0,4.667E1,3.25E1,3E0,3E0,3.75E1,1E0,1.7724983E-1,-1.8714528E-1,1E0,-1.3955736E-3,-1.9234607E-1,4.4955614E-1,2.2094958E-1,-1.6998897E-1,-2.3516823E-1,1.387336E-1,-9.024616E-2,1.5571132E-1,7.390525E-2,-2.0621234E-1,2.4382556E-2],"split_indices":[1,1,1,1,1,0,1,1,5,7,1,4,0,0,3,0,0,0,0,0,0,0,0,0,0,0,0],"split_type":[0,0,0,0,0,0,0,0,0,0,0,0,0,0,0,0,0,0,0,0,0,0,0,0,0,0,0],"sum_hessian":[2.3694766E3,1.2101122E3,1.1593645E3,8.590209E2,3.5109128E2,6.8895355E1,1.0904691E3,8.0989124E2,4.912966E1,6.877066E1,2.8232062E2,2.821013E1,4.0685226E1,4.0206963E1,1.0502622E3,7.2861865E2,8.127257E1,1.7006845E1,3.2122818E1,4.1964333E1,2.6806326E1,5.9498352E1,2.2282227E2,1.8255642E1,9.954488E0,2.2742569E1,1.0275197E3],"tree_param":{"num_deleted":"0","num_feature":"8","num_nodes":"27","size_leaf_vector":"1"}},{"base_weights":[6.0389065E-3,2.9219216E-1,-1.1613529E-1,3.205795E-1,-1.797155E-1,-2.7186117E-1,8.1412E-2,6.604687E-2,5.076689E-1,-2.1933453E-1,-2.162872E-1,5.3364545E-1,-1.7471619E-1,-1.00565165E-1,4.6485923E-2,-2.2515807E-2,7.529338E-2,-3.2248948E-2,2.0340715E-1,6.8381145E-3,1.9839913E-1,-1.8293218E-1,7.2437995E-3],"categories":[],"categories_nodes":[],"categories_segments":[],"categories_sizes":[],"default_left":[0,0,0,0,0,0,0,0,0,0,0,0,0,0,0,0,0,0,0,0,0,0,0],"id":13,"left_children":[1,3,5,7,-1,9,11,13,15,17,-1,19,21,-1,-1,-1,-1,-1,-1,-1,-1,-1,-1],"loss_changes":[8.309035E1,3.7008812E1,5.1263824E1,3.334606E1,0E0,7.54618E1,8.524455E1,8.912573E1,3.588111E1,9.205737E1,0E0,1.440777E2,1.516236E2,0E0,0E0,0E0,0E0,0E0,0E0,0E0,0E0,0E0,0E0],"parents":[2147483647,0,0,1,1,2,2,3,3,5,5,6,6,7,7,8,8,9,9,11,11,12,12],"right_children":[2,4,6,8,-1,10,12,14,16,18,-1,20,22,-1,-1,-1,-1,-1,-1,-1,-1,-1,-1],"split_conditions":[2E0,5E0,4.8E1,3.667E1,-1.797155E-1,4.75E1,5.75E1,1E0,1E0,4.667E1,-2.162872E-1,5.6E1,6.333E1,-1.00565165E-1,4.6485923E-2,-2.2515807E-2,7.529338E-2,-3.2248948E-2,2.0340715E-1,6.8381145E-3,1.9839913E-1,-1.8293218E-1,7.2437995E-3],"split_indices":[4,3,1,1,0,1,1,0,3,1,0,1,1,0,0,0,0,0,0,0,0,0,0],"split_type":[0,0,0,0,0,0,0,0,0,0,0,0,0,0,0,0,0,0,0,0,0,0,0],"sum_hessian":[2.37452E3,7.100133E2,1.6645066E3,6.999223E2,1.009099E1,9.3054614E2,7.339605E2,2.9714706E2,4.0277527E2,9.012801E2,2.9265999E1,2.6495297E2,4.6900757E2,7.763572E1,2.1951134E2,6.1925686E1,3.4084958E2,8.7839386E2,2.288623E1,1.8765076E2,7.7302216E1,6.809179E1,4.0091577E2],"tree_param":{"num_deleted":"0","num_feature":"8","num_nodes":"23","size_leaf_vector":"1"}},{"base_weights":[6.7209518E-3,8.56273E-2,-3.3703673E-1,-1.3933617E-1,2.160089E-1,-8.241822E-1,-1.4505889E-1,3.5329255E-1,-3.4546712E-1,2.6407242E-1,-5.707643E-1,-1.0494201E0,9.944172E-2,-3.586598E-2,-1.5480794E-1,8.324005E-2,6.538657E-3,-1.06854595E-1,-6.760573E-3,8.554981E-2,2.3310507E-2,-1.66612E-1,4.2883474E-2,-1.5772486E-1,-6.0119588E-2,5.8536315E-3,-1.723451E-1],"categories":[],"categories_nodes":[],"categories_segments":[],"categories_sizes":[],"default_left":[0,0,0,0,0,0,0,0,0,0,0,0,0,0,0,0,0,0,0,0,0,0,0,0,0,0,0],"id":14,"left_children":[1,3,5,7,9,11,13,15,17,19,21,23,-1,25,-1,-1,-1,-1,-1,-1,-1,-1,-1,-1,-1,-1,-1],"loss_changes":[6.3906E1,5.6234344E1,4.1003075E1,7.1593765E1,4.6053837E1,4.743318E1,4.006993E1,2.1571846E1,7.9483925E1,3.5198135E1,5.5109024E1,1.5935707E1,0E0,3.5168167E1,0E0,0E0,0E0,0E0,0E0,0E0,0E0,0E0,0E0,0E0,0E0,0E0,0E0],"parents":[2147483647,0,0,1,1,2,2,3,3,4,4,5,5,6,6,7,7,8,8,9,9,10,10,11,11,13,13],"right_children":[2,4,6,8,10,12,14,16,18,20,22,24,-1,26,-1,-1,-1,-1,-1,-1,-1,-1,-1,-1,-1,-1,-1],"split_conditions":[4E0,3E0,4E1,3E0,8.25E1,6E0,8.4E1,3E0,2.8E1,2.5E1,9.333E1,3.333E1,9.944172E-2,7E0,-1.5480794E-1,8.324005E-2,6.538657E-3,-1.06854595E-1,-6.760573E-3,8.554981E-2,2.3310507E-2,-1.66612E-1,4.2883474E-2,-1.5772486E-1,-6.0119588E-2,5.8536315E-3,-1.723451E-1],"split_indices":[4,7,1,2,1,3,1,6,1,1,1,1,0,2,0,0,0,0,0,0,0,0,0,0,0,0,0],"split_type":[0,0,0,0,0,0,0,0,0,0,0,0,0,0,0,0,0,0,0,0,0,0,0,0,0,0,0],"sum_hessian":[2.3537388E3,1.914996E3,4.387428E2,7.026139E2,1.212382E3,1.2300127E2,3.1574155E2,2.0703612E2,4.955778E2,1.1432715E3,6.91105E1,1.0868097E2,1.4320296E1,2.8960754E2,2.6134016E1,9.481157E1,1.12224556E2,1.686744E2,3.269034E2,1.4598051E2,9.97291E2,3.6193188E1,3.2917313E1,7.0649086E1,3.8031887E1,2.7418033E2,1.54272175E1],"tree_param":{"num_deleted":"0","num_feature":"8","num_nodes":"27","size_leaf_vector":"1"}},{"base_weights":[-1.1541975E-2,6.607473E-2,-3.5811636E-1,-6.52748E-2,2.715794E-1,-1.4951178E-1,-2.7465275E-1,-1.791406E-2,-2.0330794E0,3.9661196E-1,-2.9892588E-1,-2.0449576E-1,-1.4926602E-1,-7.2824843E-3,1.76431E-1,-1.6778097E-1,-2.6775232E-1,3.693757E-2,1.7731456E-1,-2.7201086E-1,-8.823087E-3,-3.171043E-2,1.905316E-1],"categories":[],"categories_nodes":[],"categories_segments":[],"categories_sizes":[],"default_left":[0,0,0,0,0,0,0,0,0,0,0,0,0,0,0,0,0,0,0,0,0,0,0],"id":15,"left_children":[1,3,5,7,9,-1,11,13,15,17,19,21,-1,-1,-1,-1,-1,-1,-1,-1,-1,-1,-1],"loss_changes":[6.1954987E1,5.081693E1,3.1344692E1,1.0703962E2,5.2488964E1,0E0,2.642549E1,7.355869E1,2.2319794E-1,5.591017E1,5.9166176E1,4.1679527E1,0E0,0E0,0E0,0E0,0E0,0E0,0E0,0E0,0E0,0E0,0E0],"parents":[2147483647,0,0,1,1,2,2,3,3,4,4,6,6,7,7,8,8,9,9,10,10,11,11],"right_children":[2,4,6,8,10,-1,12,14,16,18,20,22,-1,-1,-1,-1,-1,-1,-1,-1,-1,-1,-1],"split_conditions":[4E0,4.8E1,3E0,4.75E1,7.75E1,-1.4951178E-1,8.4E1,4.667E1,3E0,7.6E1,8E1,8.333E1,-1.4926602E-1,-7.2824843E-3,1.76431E-1,-1.6778097E-1,-2.6775232E-1,3.693757E-2,1.7731456E-1,-2.7201086E-1,-8.823087E-3,-3.171043E-2,1.905316E-1],"split_indices":[4,1,5,1,1,0,1,1,7,1,1,1,0,0,0,0,0,0,0,0,0,0,0],"split_type":[0,0,0,0,0,0,0,0,0,0,0,0,0,0,0,0,0,0,0,0,0,0,0],"sum_hessian":[2.3010938E3,1.8807771E3,4.2031665E2,1.147864E3,7.32913E2,3.4284805E1,3.8603183E2,1.1219714E3,2.5892668E1,6.0143695E2,1.3147607E2,3.615663E2,2.446552E1,1.0915029E3,3.0468412E1,9.00981E0,1.6882856E1,5.593869E2,4.2050007E1,1.228419E1,1.1919188E2,3.5035764E2,1.120869E1],"tree_param":{"num_deleted":"0","num_feature":"8","num_nodes":"23","size_leaf_vector":"1"}},{"base_weights":[-2.4725655E-3,6.898174E-2,-3.2655177E-1,-1.8800402E-1,1.3997157E-1,-8.7885904E-1,-1.9919272E-1,2.9475364E-1,-1.4783223E0,1.4403243E0,5.611476E-2,-1.5030734E-1,9.7328186E-2,1.7750087E-1,-2.6051193E-1,-4.0035797E-4,1.543767E-1,-1.6041301E-1,-2.2228327E-1,2.2750168E-1,1.4914201E-1,-1.3897713E-1,1.5076058E-2,-1.4987618E-1,-1.9885952E-2],"categories":[],"categories_nodes":[],"categories_segments":[],"categories_sizes":[],"default_left":[0,0,0,0,0,0,0,0,0,0,0,0,0,0,0,0,0,0,0,0,0,0,0,0,0],"id":16,"left_children":[1,3,5,7,9,11,13,15,17,19,21,-1,-1,-1,23,-1,-1,-1,-1,-1,-1,-1,-1,-1,-1],"loss_changes":[5.3220734E1,3.438331E1,2.9012196E1,2.5466899E2,1.6087518E2,5.221582E1,3.564772E1,8.937526E1,2.7674103E0,5.1651764E0,1.2102478E2,0E0,0E0,0E0,3.0315477E1,0E0,0E0,0E0,0E0,0E0,0E0,0E0,0E0,0E0,0E0],"parents":[2147483647,0,0,1,1,2,2,3,3,4,4,5,5,6,6,7,7,8,8,9,9,10,10,14,14],"right_children":[2,4,6,8,10,12,14,16,18,20,22,-1,-1,-1,24,-1,-1,-1,-1,-1,-1,-1,-1,-1,-1],"split_conditions":[4E0,2.8E1,3.333E1,2.5E1,3E1,6E0,3.5E1,2.333E1,3E0,2E0,3.2E1,-1.5030734E-1,9.7328186E-2,1.7750087E-1,4E1,-4.0035797E-4,1.543767E-1,-1.6041301E-1,-2.2228327E-1,2.2750168E-1,1.4914201E-1,-1.3897713E-1,1.5076058E-2,-1.4987618E-1,-1.9885952E-2],"split_indices":[4,1,1,1,1,3,1,1,7,7,1,0,0,0,1,0,0,0,0,0,0,0,0,0,0],"split_type":[0,0,0,0,0,0,0,0,0,0,0,0,0,0,0,0,0,0,0,0,0,0,0,0,0],"sum_hessian":[2.2961E3,1.8820127E3,4.140874E2,4.0696616E2,1.4750465E3,7.63766E1,3.377108E2,2.96779E2,1.10187164E2,8.8281166E1,1.3867654E3,6.240775E1,1.3968852E1,1.0890343E1,3.2682047E2,2.2979898E2,6.698E1,8.717801E1,2.3009155E1,2.1617071E1,6.666409E1,7.484505E1,1.3119203E3,2.6540405E1,3.0028006E2],"tree_param":{"num_deleted":"0","num_feature":"8","num_nodes":"25","size_leaf_vector":"1"}},{"base_weights":[3.8261442E-3,2.0290123E-2,-1.6436584E-1,-1.1150987E-1,1.5635608E-1,-5.726123E-2,-1.8228632E-1,1.2738056E0,8.671205E-2,-4.8910554E-2,1.4011458E-2,1.2114207E-1,1.6755784E-1,-1.773379E-1,1.7235946E-2],"categories":[],"categories_nodes":[],"categories_segments":[],"categories_sizes":[],"default_left":[0,0,0,0,0,0,0,0,0,0,0,0,0,0,0],"id":17,"left_children":[1,3,-1,5,7,9,-1,11,13,-1,-1,-1,-1,-1,-1],"loss_changes":[5.188676E1,4.022421E1,0E0,8.7976E1,8.576108E1,6.844617E1,0E0,6.752701E-1,9.653686E1,0E0,0E0,0E0,0E0,0E0,0E0],"parents":[2147483647,0,0,1,1,3,3,4,4,5,5,7,7,8,8],"right_children":[2,4,-1,6,8,10,-1,12,14,-1,-1,-1,-1,-1,-1],"split_conditions":[7E0,4.333E1,-1.6436584E-1,4.25E1,4.5E1,1E0,-1.8228632E-1,1E0,4.667E1,-4.8910554E-2,1.4011458E-2,1.2114207E-1,1.6755784E-1,-1.773379E-1,1.7235946E-2],"split_indices":[2,1,0,1,1,0,0,0,1,0,0,0,0,0,0],"split_type":[0,0,0,0,0,0,0,0,0,0,0,0,0,0,0],"sum_hessian":[2.2662683E3,2.240795E3,2.5473442E1,1.1383416E3,1.1024535E3,1.0976929E3,4.0648594E1,6.3561867E1,1.0388916E3,3.6246677E2,7.3522614E2,2.5748257E1,3.781361E1,3.6131203E1,1.0027604E3],"tree_param":{"num_deleted":"0","num_feature":"8","num_nodes":"15","size_leaf_vector":"1"}},{"base_weights":[1.0508054E-2,2.501454E-2,-1.5697911E-1,2.3064783E-1,-6.181919E-2,5.328007E-1,1.076056E-1,-3.5337627E-2,-7.8495586E-1,-6.691191E-2,7.523425E-2,-3.787806E-2,4.998041E-2,-1.926937E-2,2.398866E-2,-1.5452643E-1,6.1724674E-2],"categories":[],"categories_nodes":[],"categories_segments":[],"categories_sizes":[],"default_left":[0,0,0,0,0,0,0,0,0,0,0,0,0,0,0,0,0],"id":18,"left_children":[1,3,-1,5,7,9,11,13,15,-1,-1,-1,-1,-1,-1,-1,-1],"loss_changes":[4.3948124E1,4.0130184E1,0E0,2.474327E1,3.0234318E1,2.1810818E1,6.380993E1,4.608415E1,3.84145E1,0E0,0E0,0E0,0E0,0E0,0E0,0E0,0E0],"parents":[2147483647,0,0,1,1,3,3,4,4,5,5,6,6,7,7,8,8],"right_children":[2,4,-1,6,8,10,12,14,16,-1,-1,-1,-1,-1,-1,-1,-1],"split_conditions":[7E0,2E0,-1.5697911E-1,3E0,8.4E1,2E0,4.333E1,5.333E1,1E2,-6.691191E-2,7.523425E-2,-3.787806E-2,4.998041E-2,-1.926937E-2,2.398866E-2,-1.5452643E-1,6.1724674E-2],"split_indices":[2,4,0,2,1,7,1,1,1,0,0,0,0,0,0,0,0],"split_type":[0,0,0,0,0,0,0,0,0,0,0,0,0,0,0,0,0],"sum_hessian":[2.2688127E3,2.2454663E3,2.3346386E1,6.6613983E2,1.5793265E3,1.9170566E2,4.7443414E2,1.5246478E3,5.4678745E1,1.5782042E1,1.7592361E2,2.0094104E2,2.734931E2,9.934952E2,5.3115265E2,3.9157784E1,1.5520961E1],"tree_param":{"num_deleted":"0","num_feature":"8","num_nodes":"17","size_leaf_vector":"1"}},{"base_weights":[2.6332724E-3,4.2464413E-2,-4.5113656E-1,7.1620685E-3,1.6788475E-1,-2.3226008E-1,-2.586711E-1,2.8010463E-2,-2.665465E-1,5.141212E-2,-8.520774E-1,2.2304895E-4,1.6508803E-1,7.424202E-2,-5.1536333E-2,-1.9851267E-1,-5.6791916E-2],"categories":[],"categories_nodes":[],"categories_segments":[],"categories_sizes":[],"default_left":[0,0,0,0,0,0,0,0,0,0,0,0,0,0,0,0,0],"id":19,"left_children":[1,3,5,7,-1,-1,9,11,-1,13,15,-1,-1,-1,-1,-1,-1],"loss_changes":[4.0448345E1,9.966713E1,5.1800053E1,9.43574E1,0E0,0E0,2.9746258E1,7.0873215E1,0E0,3.0162064E1,1.612053E1,0E0,0E0,0E0,0E0,0E0,0E0],"parents":[2147483647,0,0,1,1,2,2,3,3,6,6,7,7,9,9,10,10],"right_children":[2,4,6,8,-1,-1,10,12,-1,14,16,-1,-1,-1,-1,-1,-1],"split_conditions":[7.75E1,7.6E1,8E1,7.5E1,1.6788475E-1,-2.3226008E-1,4E0,7.333E1,-2.665465E-1,8.25E1,8.333E1,2.2304895E-4,1.6508803E-1,7.424202E-2,-5.1536333E-2,-1.9851267E-1,-5.6791916E-2],"split_indices":[1,1,1,1,0,0,3,1,0,1,1,0,0,0,0,0,0],"split_type":[0,0,0,0,0,0,0,0,0,0,0,0,0,0,0,0,0],"sum_hessian":[2.2356414E3,2.0561536E3,1.7948795E2,2.0056713E3,5.0482216E1,1.9190931E1,1.6029701E2,1.988364E3,1.7307232E1,1.0594238E2,5.4354633E1,1.9520529E3,3.6311096E1,4.840149E1,5.7540894E1,1.579568E1,3.8558952E1],"tree_param":{"num_deleted":"0","num_feature":"8","num_nodes":"17","size_leaf_vector":"1"}},{"base_weights":[-8.931014E-3,2.0187774E-1,-9.72529E-2,2.2679338E-1,-1.6653766E-1,-2.2976774E-1,6.115085E-2,3.139194E-2,3.718387E-1,4.687795E-2,-7.1355796E-1,1.6352072E-1,-1.9593552E-2,-8.610459E-2,3.616021E-2,1.4932175E-1,3.1172741E-2,-1.8360948E-2,2.8661832E-1,-1.7907456E-1,-6.444885E-2,3.762107E-2,-2.2557983E-2],"categories":[],"categories_nodes":[],"categories_segments":[],"categories_sizes":[],"default_left":[0,0,0,0,0,0,0,0,0,0,0,0,0,0,0,0,0,0,0,0,0,0,0],"id":20,"left_children":[1,3,5,7,-1,9,11,13,15,17,19,-1,21,-1,-1,-1,-1,-1,-1,-1,-1,-1,-1],"loss_changes":[4.1397163E1,2.661115E1,3.2904453E1,1.8336075E1,0E0,1.1424919E2,7.601822E1,5.757893E1,3.557507E1,2.602022E2,4.1194153E1,0E0,3.878308E1,0E0,0E0,0E0,0E0,0E0,0E0,0E0,0E0,0E0,0E0],"parents":[2147483647,0,0,1,1,2,2,3,3,5,5,6,6,7,7,8,8,9,9,10,10,12,12],"right_children":[2,4,6,8,-1,10,12,14,16,18,20,-1,22,-1,-1,-1,-1,-1,-1,-1,-1,-1,-1],"split_conditions":[2E0,5E0,4.8E1,3.667E1,-1.6653766E-1,3.5E1,5E1,1E0,3.75E1,3.333E1,3.667E1,1.6352072E-1,5.75E1,-8.610459E-2,3.616021E-2,1.4932175E-1,3.1172741E-2,-1.8360948E-2,2.8661832E-1,-1.7907456E-1,-6.444885E-2,3.762107E-2,-2.2557983E-2],"split_indices":[4,3,1,1,0,1,1,0,1,1,1,0,1,0,0,0,0,0,0,0,0,0,0],"split_type":[0,0,0,0,0,0,0,0,0,0,0,0,0,0,0,0,0,0,0,0,0,0,0],"sum_hessian":[2.2211182E3,6.5539374E2,1.5657244E3,6.4630884E2,9.084942E0,8.522593E2,7.134651E2,2.7592648E2,3.7038232E2,5.4284076E2,3.0941852E2,4.0192844E1,6.732723E2,7.27172E1,2.0320929E2,3.9313705E1,3.3106863E2,5.012076E2,4.1633152E1,5.304263E1,2.563759E2,2.2604733E2,4.4722495E2],"tree_param":{"num_deleted":"0","num_feature":"8","num_nodes":"23","size_leaf_vector":"1"}},{"base_weights":[8.893613E-3,-2.0578231E-1,7.3067114E-2,1.0448308E0,-2.772814E-1,1.1170772E0,4.7509316E-2,6.2249616E-2,1.9514428E-1,-8.3363897E-1,-2.3347087E-2,2.258942E-1,6.926016E-1,-2.0367338E-1,5.8293637E-2,-2.3078289E-2,-1.5910567E-1,1.6665678E-1,-2.0432118E-2,1.5395032E-1,2.568951E-2,6.380204E-2,9.280371E-5],"categories":[],"categories_nodes":[],"categories_segments":[],"categories_sizes":[],"default_left":[0,0,0,0,0,0,0,0,0,0,0,0,0,0,0,0,0,0,0,0,0,0,0],"id":21,"left_children":[1,3,5,7,9,11,13,-1,-1,15,17,-1,19,-1,21,-1,-1,-1,-1,-1,-1,-1,-1],"loss_changes":[3.0483555E1,4.5853973E1,4.5392178E1,7.7157173E0,6.815532E1,1.2125938E1,3.1763693E1,0E0,0E0,4.873883E1,7.093688E1,0E0,7.7940683E0,0E0,4.5627125E1,0E0,0E0,0E0,0E0,0E0,0E0,0E0,0E0],"parents":[2147483647,0,0,1,1,2,2,3,3,4,4,5,5,6,6,9,9,10,10,12,12,14,14],"right_children":[2,4,6,8,10,12,14,-1,-1,16,18,-1,20,-1,22,-1,-1,-1,-1,-1,-1,-1,-1],"split_conditions":[3E0,1.5E1,2E0,1.333E1,2.8E1,2.25E1,1.333E1,6.2249616E-2,1.9514428E-1,1E0,3E1,2.258942E-1,1E0,-2.0367338E-1,2.5E1,-2.3078289E-2,-1.5910567E-1,1.6665678E-1,-2.0432118E-2,1.5395032E-1,2.568951E-2,6.380204E-2,9.280371E-5],"split_indices":[5,1,7,1,1,1,1,0,0,0,1,0,4,0,1,0,0,0,0,0,0,0,0],"split_type":[0,0,0,0,0,0,0,0,0,0,0,0,0,0,0,0,0,0,0,0,0,0,0],"sum_hessian":[2.2104182E3,5.081395E2,1.7022787E3,2.6669567E1,4.8146994E2,3.9553413E1,1.6627253E3,1.5388579E1,1.1280987E1,1.5009857E2,3.3137137E2,1.2516764E1,2.703665E1,9.045005E0,1.6536803E3,6.709467E1,8.300391E1,3.0406273E1,3.009651E2,1.1070932E1,1.5965716E1,1.7613762E2,1.4775427E3],"tree_param":{"num_deleted":"0","num_feature":"8","num_nodes":"23","size_leaf_vector":"1"}},{"base_weights":[8.735894E-3,2.1619542E-2,-1.4856605E-1,4.31898E-2,-5.771395E-1,-4.4088066E-2,2.5056082E-1,-1.474803E-1,7.987418E-2,-3.6289849E-4,-2.6818824E-1,1.7262551E-1,5.612125E-3,1.6106425E-1,-4.936731E-2],"categories":[],"categories_nodes":[],"categories_segments":[],"categories_sizes":[],"default_left":[0,0,0,0,0,0,0,0,0,0,0,0,0,0,0],"id":22,"left_children":[1,3,-1,5,7,9,11,-1,13,-1,-1,-1,-1,-1,-1],"loss_changes":[3.5947056E1,2.8308857E1,0E0,3.8284595E1,3.345269E1,1.354061E2,1.5329906E2,0E0,2.558518E1,0E0,0E0,0E0,0E0,0E0,0E0],"parents":[2147483647,0,0,1,1,3,3,4,4,5,5,6,6,8,8],"right_children":[2,4,-1,6,8,10,12,-1,14,-1,-1,-1,-1,-1,-1],"split_conditions":[7E0,8.4E1,-1.4856605E-1,5.6E1,9.333E1,5.5E1,5.75E1,-1.474803E-1,9.5E1,-3.6289849E-4,-2.6818824E-1,1.7262551E-1,5.612125E-3,1.6106425E-1,-4.936731E-2],"split_indices":[2,1,0,1,1,1,1,0,1,0,0,0,0,0,0],"split_type":[0,0,0,0,0,0,0,0,0,0,0,0,0,0,0],"sum_hessian":[2.209927E3,2.188645E3,2.1281893E1,2.1135269E3,7.511838E1,1.4880895E3,6.254372E2,3.682094E1,3.8297443E1,1.4621233E3,2.5966286E1,8.933539E1,5.361018E2,1.0174695E1,2.8122747E1],"tree_param":{"num_deleted":"0","num_feature":"8","num_nodes":"15","size_leaf_vector":"1"}},{"base_weights":[-5.479602E-4,-2.3518664E-1,5.4398093E-2,1.9469424E-1,-1.3720169E0,1.2440058E0,-5.9105065E-3,-1.3363169E-1,1.2123948E0,-1.4441107E-1,-1.7746101E-1,1.6350706E0,1.0856425E0,-1.0790046E0,5.1971808E-2,2.1096438E-2,-1.8445386E-1,1.7412384E-1,1.1327668E-1,2.3276134E-1,1.3103466E-1,1.0798894E-1,1.5566915E-1,-1.8815772E-1,-5.857202E-2,1.8097016E-1,-2.7067496E-3],"categories":[],"categories_nodes":[],"categories_segments":[],"categories_sizes":[],"default_left":[0,0,0,0,0,0,0,0,0,0,0,0,0,0,0,0,0,0,0,0,0,0,0,0,0,0,0],"id":23,"left_children":[1,3,5,7,9,11,13,15,17,-1,-1,19,21,23,25,-1,-1,-1,-1,-1,-1,-1,-1,-1,-1,-1,-1],"loss_changes":[2.813392E1,2.0264172E2,1.2686185E2,1.0088947E2,1.7489624E-1,3.3299713E0,1.0465637E2,1.0159184E2,3.2986908E0,0E0,0E0,1.5015717E0,1.2281723E0,2.4720497E1,1.7619102E2,0E0,0E0,0E0,0E0,0E0,0E0,0E0,0E0,0E0,0E0,0E0,0E0],"parents":[2147483647,0,0,1,1,2,2,3,3,4,4,5,5,6,6,7,7,8,8,11,11,12,12,13,13,14,14],"right_children":[2,4,6,8,10,12,14,16,18,-1,-1,20,22,24,26,-1,-1,-1,-1,-1,-1,-1,-1,-1,-1,-1,-1],"split_conditions":[2.8E1,2.5E1,3E1,2.333E1,3E0,2E0,3.2E1,2.25E1,1E0,-1.4441107E-1,-1.7746101E-1,3E0,3E0,3E0,3.25E1,2.1096438E-2,-1.8445386E-1,1.7412384E-1,1.1327668E-1,2.3276134E-1,1.3103466E-1,1.0798894E-1,1.5566915E-1,-1.8815772E-1,-5.857202E-2,1.8097016E-1,-2.7067496E-3],"split_indices":[1,1,1,1,5,7,1,1,0,0,0,6,4,4,1,0,0,0,0,0,0,0,0,0,0,0,0],"split_type":[0,0,0,0,0,0,0,0,0,0,0,0,0,0,0,0,0,0,0,0,0,0,0,0,0,0,0],"sum_hessian":[2.180005E3,4.1295093E2,1.7670541E3,3.003056E2,1.1264533E2,8.421817E1,1.6828359E3,2.277773E2,7.2528305E1,5.5300983E1,5.7344353E1,2.1316105E1,6.290206E1,8.513218E1,1.5977037E3,1.8761952E2,4.0157784E1,3.3847122E1,3.8681183E1,1.1357083E1,9.959021E0,3.854443E1,2.4357634E1,4.4618816E1,4.0513363E1,7.615193E1,1.5215518E3],"tree_param":{"num_deleted":"0","num_feature":"8","num_nodes":"27","size_leaf_vector":"1"}},{"base_weights":[4.3098573E-4,1.2050999E-2,-1.4354233E-1,2.6462203E-1,-3.4854073E-2,3.4934467E-1,-5.2792406E-1,-3.9638305E-1,4.880325E-2,2.8040782E-2,1.528955E-1,1.4081903E-2,-2.1688764E-1,3.8784925E-2,-6.995234E-2,1.3918935E-1,2.3675114E-3],"categories":[],"categories_nodes":[],"categories_segments":[],"categories_sizes":[],"default_left":[0,0,0,0,0,0,0,0,0,0,0,0,0,0,0,0,0],"id":24,"left_children":[1,3,-1,5,7,9,11,13,15,-1,-1,-1,-1,-1,-1,-1,-1],"loss_changes":[3.0338886E1,2.532483E1,0E0,2.2684067E1,5.455586E1,3.184277E1,2.7787603E1,4.757214E1,4.7501076E1,0E0,0E0,0E0,0E0,0E0,0E0,0E0,0E0],"parents":[2147483647,0,0,1,1,3,3,4,4,5,5,6,6,7,7,8,8],"right_children":[2,4,-1,6,8,10,12,14,16,-1,-1,-1,-1,-1,-1,-1,-1],"split_conditions":[7E0,3E0,-1.4354233E-1,3E0,3E0,3E0,3E0,1E0,2E0,2.8040782E-2,1.528955E-1,1.4081903E-2,-2.1688764E-1,3.8784925E-2,-6.995234E-2,1.3918935E-1,2.3675114E-3],"split_indices":[2,2,0,4,5,3,7,4,7,0,0,0,0,0,0,0,0],"split_type":[0,0,0,0,0,0,0,0,0,0,0,0,0,0,0,0,0],"sum_hessian":[2.155141E3,2.1357246E3,1.9416508E1,3.3370505E2,1.8020197E3,3.020334E2,3.1671638E1,3.378539E2,1.4641658E3,2.7082547E2,3.1207924E1,2.1819368E1,9.852271E0,7.105761E1,2.667963E2,3.5538307E1,1.4286274E3],"tree_param":{"num_deleted":"0","num_feature":"8","num_nodes":"17","size_leaf_vector":"1"}},{"base_weights":[-1.6834758E-2,-6.513394E-3,-1.3920304E-1,2.3089372E-1,-5.1147185E-2,6.978081E-1,5.3855935E-3,-4.2694995E-1,1.7361837E-2,-2.8195053E-2,1.0289112E-1,-1.6885427E-1,1.8688539E-2,-6.8938476E-3,-1.5214391E-1,1.382819E-1,-3.1436929E-3],"categories":[],"categories_nodes":[],"categories_segments":[],"categories_sizes":[],"default_left":[0,0,0,0,0,0,0,0,0,0,0,0,0,0,0,0,0],"id":25,"left_children":[1,3,-1,5,7,9,11,13,15,-1,-1,-1,-1,-1,-1,-1,-1],"loss_changes":[2.5282253E1,2.2279272E1,0E0,3.5030823E1,4.5569923E1,1.7394627E1,4.924614E1,8.60186E1,7.545484E1,0E0,0E0,0E0,0E0,0E0,0E0,0E0,0E0],"parents":[2147483647,0,0,1,1,3,3,4,4,5,5,6,6,7,7,8,8],"right_children":[2,4,-1,6,8,10,12,14,16,-1,-1,-1,-1,-1,-1,-1,-1],"split_conditions":[7E0,3E0,-1.3920304E-1,2.5E1,2.8E1,2E1,2.8E1,2.5E1,3E1,-2.8195053E-2,1.0289112E-1,-1.6885427E-1,1.8688539E-2,-6.8938476E-3,-1.5214391E-1,1.382819E-1,-3.1436929E-3],"split_indices":[2,2,0,1,1,1,1,1,1,0,0,0,0,0,0,0,0],"split_type":[0,0,0,0,0,0,0,0,0,0,0,0,0,0,0,0,0],"sum_hessian":[2.1178474E3,2.1002087E3,1.7638588E1,3.3163724E2,1.7685715E3,1.0725681E2,2.2438042E2,2.7181042E2,1.4967611E3,1.6374832E1,9.088198E1,2.0709791E1,2.0367062E2,1.9073512E2,8.107529E1,5.4036808E1,1.4427242E3],"tree_param":{"num_deleted":"0","num_feature":"8","num_nodes":"17","size_leaf_vector":"1"}},{"base_weights":[-3.7737982E-3,1.596716E-2,-5.4954123E-1,-5.441432E-2,2.751289E-1,-4.990847E-2,-1.6116284E-1,-2.3406146E-2,-2.4291407E-1,1.546891E0,9.244759E-2,-1.3989753E-1,7.9841334E-1,5.386585E-3,-4.8086584E-2,1.9551276E-1,1.2201474E-1,-2.693461E-1,2.6943062E-2,1.5231419E-1,5.4334003E-2],"categories":[],"categories_nodes":[],"categories_segments":[],"categories_sizes":[],"default_left":[0,0,0,0,0,0,0,0,0,0,0,0,0,0,0,0,0,0,0,0,0],"id":26,"left_children":[1,3,5,7,9,11,-1,13,-1,15,17,-1,19,-1,-1,-1,-1,-1,-1,-1,-1],"loss_changes":[2.2860123E1,3.7371063E1,2.985499E1,9.952947E1,1.0150049E2,4.59869E1,0E0,4.1741737E1,0E0,1.0070648E0,1.22635605E2,0E0,3.8890285E0,0E0,0E0,0E0,0E0,0E0,0E0,0E0,0E0],"parents":[2147483647,0,0,1,1,2,2,3,3,4,4,5,5,7,7,9,9,10,10,12,12],"right_children":[2,4,6,8,10,12,-1,14,-1,16,18,-1,20,-1,-1,-1,-1,-1,-1,-1,-1],"split_conditions":[8.4E1,6.333E1,1E0,6.25E1,6.5E1,9.333E1,-1.6116284E-1,4E0,-2.4291407E-1,1E0,6.667E1,-1.3989753E-1,9.5E1,5.386585E-3,-4.8086584E-2,1.9551276E-1,1.2201474E-1,-2.693461E-1,2.6943062E-2,1.5231419E-1,5.4334003E-2],"split_indices":[1,1,0,1,1,1,0,3,0,0,1,0,1,0,0,0,0,0,0,0,0],"split_type":[0,0,0,0,0,0,0,0,0,0,0,0,0,0,0,0,0,0,0,0,0],"sum_hessian":[2.1197944E3,2.0468271E3,7.2967316E1,1.6103644E3,4.3646286E2,4.582582E1,2.7141495E1,1.5867886E3,2.3575777E1,5.378829E1,3.8267456E2,1.9474705E1,2.6351116E1,1.3453558E3,2.4143272E2,4.3018986E1,1.0769301E1,1.9690243E1,3.629843E2,9.607516E0,1.6743599E1],"tree_param":{"num_deleted":"0","num_feature":"8","num_nodes":"21","size_leaf_vector":"1"}},{"base_weights":[-1.02296695E-2,-1.0032854E-3,-1.3482708E-1,-1.9567412E-1,5.430482E-2,-2.6489744E-1,1.001693E0,3.3146605E-1,-1.0426219E-2,-1.2406383E-2,-9.48701E-2,1.5837511E-1,7.7951804E-2,9.974344E-2,1.7583985E-2,-1.8633355E-1,3.7340232E-4],"categories":[],"categories_nodes":[],"categories_segments":[],"categories_sizes":[],"default_left":[0,0,0,0,0,0,0,0,0,0,0,0,0,0,0,0,0],"id":27,"left_children":[1,3,-1,5,7,9,11,13,15,-1,-1,-1,-1,-1,-1,-1,-1],"loss_changes":[2.1795933E1,2.2427992E1,0E0,3.8492172E1,2.9107452E1,3.733323E1,1.9534512E0,2.852642E1,2.7873875E1,0E0,0E0,0E0,0E0,0E0,0E0,0E0,0E0],"parents":[2147483647,0,0,1,1,3,3,4,4,5,5,6,6,7,7,8,8],"right_children":[2,4,-1,6,8,10,12,14,16,-1,-1,-1,-1,-1,-1,-1,-1],"split_conditions":[7E0,3E0,-1.3482708E-1,3E0,2E0,3E0,1.25E1,2.5E1,1.6E1,-1.2406383E-2,-9.48701E-2,1.5837511E-1,7.7951804E-2,9.974344E-2,1.7583985E-2,-1.8633355E-1,3.7340232E-4],"split_indices":[2,5,0,7,3,4,1,1,1,0,0,0,0,0,0,0,0],"split_type":[0,0,0,0,0,0,0,0,0,0,0,0,0,0,0,0,0],"sum_hessian":[2.0968152E3,2.080868E3,1.5947172E1,4.5977615E2,1.6210917E3,4.3545822E2,2.4317932E1,3.0606528E2,1.3150265E3,3.3601352E2,9.9444695E1,1.0759109E1,1.3558823E1,7.9959206E1,2.2610608E2,1.0254009E1,1.3047725E3],"tree_param":{"num_deleted":"0","num_feature":"8","num_nodes":"17","size_leaf_vector":"1"}},{"base_weights":[-3.018671E-3,-1.0693215E-1,9.872779E-2,-5.6492236E-2,-1.7113218E-1,1.2240001E0,3.1303085E-2,-3.3016136E-1,8.1024155E-2,9.337456E-1,1.6338621E-1,-1.6593045E-1,8.171478E-2,-6.149748E-2,6.8241894E-2,1.9654877E-2,-1.5915538E-1,1.2512669E-1,7.236705E-2,-1.924846E-1,1.4471337E-2],"categories":[],"categories_nodes":[],"categories_segments":[],"categories_sizes":[],"default_left":[0,0,0,0,0,0,0,0,0,0,0,0,0,0,0,0,0,0,0,0,0],"id":28,"left_children":[1,3,5,7,-1,9,11,13,15,17,-1,-1,19,-1,-1,-1,-1,-1,-1,-1,-1],"loss_changes":[2.211404E1,6.960875E1,8.01409E1,3.7597374E1,0E0,1.2372894E0,7.2075264E1,5.7230713E1,8.032904E1,2.3251724E-1,0E0,0E0,6.642359E1,0E0,0E0,0E0,0E0,0E0,0E0,0E0,0E0],"parents":[2147483647,0,0,1,1,2,2,3,3,5,5,6,6,7,7,8,8,9,9,12,12],"right_children":[2,4,6,8,-1,10,12,14,16,18,-1,-1,20,-1,-1,-1,-1,-1,-1,-1,-1],"split_conditions":[4.333E1,4.25E1,4.5E1,1E0,-1.7113218E-1,1E0,4.667E1,4E1,6E0,2E0,1.6338621E-1,-1.6593045E-1,1E0,-6.149748E-2,6.8241894E-2,1.9654877E-2,-1.5915538E-1,1.2512669E-1,7.236705E-2,-1.924846E-1,1.4471337E-2],"split_indices":[1,1,1,0,0,0,1,1,2,3,0,0,3,0,0,0,0,0,0,0,0],"split_type":[0,0,0,0,0,0,0,0,0,0,0,0,0,0,0,0,0,0,0,0,0],"sum_hessian":[2.0893918E3,1.0336603E3,1.0557314E3,9.971438E2,3.6516483E1,5.8614502E1,9.97117E2,3.3296786E2,6.641759E2,2.2934124E1,3.568038E1,3.295677E1,9.641602E2,2.76065E2,5.6902863E1,6.2779614E2,3.6379807E1,1.4892882E1,8.041242E0,2.1251265E1,9.4290894E2],"tree_param":{"num_deleted":"0","num_feature":"8","num_nodes":"21","size_leaf_vector":"1"}},{"base_weights":[4.350139E-3,1.2382294E-2,-1.3079879E-1,-1.3588661E-1,5.4281153E-2,1.3494807E-1,-4.7101164E-1,8.465138E-1,3.55809E-2,3.2916383E-3,1.5111803E-1,-1.5007208E-1,-3.8151324E-2,6.503673E-2,1.4273337E-1,3.1537823E-2,-1.6339216E-3],"categories":[],"categories_nodes":[],"categories_segments":[],"categories_sizes":[],"default_left":[0,0,0,0,0,0,0,0,0,0,0,0,0,0,0,0,0],"id":29,"left_children":[1,3,-1,5,7,9,11,13,15,-1,-1,-1,-1,-1,-1,-1,-1],"loss_changes":[1.8592491E1,1.2903934E1,0E0,4.1610413E1,2.3956333E1,3.0964817E1,2.3852367E1,3.240612E0,1.7990961E1,0E0,0E0,0E0,0E0,0E0,0E0,0E0,0E0],"parents":[2147483647,0,0,1,1,3,3,4,4,5,5,6,6,7,7,8,8],"right_children":[2,4,-1,6,8,10,12,14,16,-1,-1,-1,-1,-1,-1,-1,-1],"split_conditions":[7E0,3E0,-1.3079879E-1,4E0,2E0,3E0,2E0,4E0,2E0,3.2916383E-3,1.5111803E-1,-1.5007208E-1,-3.8151324E-2,6.503673E-2,1.4273337E-1,3.1537823E-2,-1.6339216E-3],"split_indices":[2,5,0,2,7,7,3,2,3,0,0,0,0,0,0,0,0],"split_type":[0,0,0,0,0,0,0,0,0,0,0,0,0,0,0,0,0],"sum_hessian":[2.088721E3,2.074752E3,1.3969123E1,4.565773E2,1.6181746E3,2.5287294E2,2.0370436E2,3.6191776E1,1.5819828E3,2.3214452E2,2.0728422E1,3.0976406E1,1.7272795E2,2.122154E1,1.4970236E1,2.7840564E2,1.3035771E3],"tree_param":{"num_deleted":"0","num_feature":"8","num_nodes":"17","size_leaf_vector":"1"}},{"base_weights":[5.8675214E-4,-2.4136512E-1,5.17852E-2,1.1230943E-1,-1.5227096E-1,1.0765766E0,3.2640933E-3,-9.3820825E-2,1.0344442E0,1.7059435E-1,9.3095636E-1,-9.743778E-1,5.188448E-2,2.1840563E-2,-1.7988409E-1,1.7594555E-1,7.698583E-2,1.3099936E-1,4.234488E-2,-1.7870976E-1,-4.5776676E-2,1.6637121E-1,-1.6039808E-3],"categories":[],"categories_nodes":[],"categories_segments":[],"categories_sizes":[],"default_left":[0,0,0,0,0,0,0,0,0,0,0,0,0,0,0,0,0,0,0,0,0,0,0],"id":30,"left_children":[1,3,5,7,-1,9,11,13,15,-1,17,19,21,-1,-1,-1,-1,-1,-1,-1,-1,-1,-1],"loss_changes":[2.5652716E1,1.3344434E2,8.498258E1,5.1624756E1,0E0,2.5907059E0,7.767763E1,8.825847E1,7.51923E0,0E0,5.349121E0,2.3593597E1,1.3749849E2,0E0,0E0,0E0,0E0,0E0,0E0,0E0,0E0,0E0,0E0],"parents":[2147483647,0,0,1,1,2,2,3,3,5,5,6,6,7,7,8,8,10,10,11,11,12,12],"right_children":[2,4,6,8,-1,10,12,14,16,-1,18,20,22,-1,-1,-1,-1,-1,-1,-1,-1,-1,-1],"split_conditions":[2.8E1,2.5E1,3E1,2.333E1,-1.5227096E-1,2E0,3.2E1,2.25E1,2.4E1,1.7059435E-1,4E0,3E0,3.25E1,2.1840563E-2,-1.7988409E-1,1.7594555E-1,7.698583E-2,1.3099936E-1,4.234488E-2,-1.7870976E-1,-4.5776676E-2,1.6637121E-1,-1.6039808E-3],"split_indices":[1,1,1,1,0,7,1,1,1,0,2,4,1,0,0,0,0,0,0,0,0,0,0],"split_type":[0,0,0,0,0,0,0,0,0,0,0,0,0,0,0,0,0,0,0,0,0,0,0],"sum_hessian":[2.0686333E3,3.60571E2,1.7080624E3,2.6993234E2,9.063864E1,7.616188E1,1.6319005E3,2.214247E2,4.8507664E1,1.907609E1,5.7085793E1,7.6320305E1,1.5555802E3,1.8603384E2,3.5390842E1,2.0978077E1,2.7529585E1,4.3078346E1,1.4007446E1,3.9191746E1,3.712856E1,7.08251E1,1.4847551E3],"tree_param":{"num_deleted":"0","num_feature":"8","num_nodes":"23","size_leaf_vector":"1"}},{"base_weights":[5.6827283E-3,2.7406132E-2,-4.4216138E-1,-5.459099E-3,4.890326E-1,-1.7592204E-1,-2.2097106E-1,1.4445188E-2,-2.3601717E-1,6.997963E-1,-1.8767394E-1,1.7691594E-1,-5.152996E-1,-1.1837573E-3,1.5578626E-1,1.5893823E-1,3.156281E-2,-1.3888717E-1,6.8786214E-3],"categories":[],"categories_nodes":[],"categories_segments":[],"categories_sizes":[],"default_left":[0,0,0,0,0,0,0,0,0,0,0,0,0,0,0,0,0,0,0],"id":31,"left_children":[1,3,5,7,9,-1,11,13,-1,15,-1,-1,17,-1,-1,-1,-1,-1,-1],"loss_changes":[1.9989254E1,2.9729038E1,2.1516836E1,7.22967E1,5.8058746E1,0E0,4.0999004E1,5.7513954E1,0E0,3.2622887E1,0E0,0E0,2.5923838E1,0E0,0E0,0E0,0E0,0E0,0E0],"parents":[2147483647,0,0,1,1,2,2,3,3,4,4,6,6,7,7,9,9,12,12],"right_children":[2,4,6,8,10,-1,12,14,-1,16,-1,-1,18,-1,-1,-1,-1,-1,-1],"split_conditions":[8.25E1,7.6E1,8.333E1,7.5E1,5E0,-1.7592204E-1,8.4E1,7.333E1,-2.3601717E-1,7.75E1,-1.8767394E-1,1.7691594E-1,9.333E1,-1.1837573E-3,1.5578626E-1,1.5893823E-1,3.156281E-2,-1.3888717E-1,6.8786214E-3],"split_indices":[1,1,1,1,2,0,1,1,0,1,0,0,1,0,0,0,0,0,0],"split_type":[0,0,0,0,0,0,0,0,0,0,0,0,0,0,0,0,0,0,0],"sum_hessian":[2.052197E3,1.9582427E3,9.3954384E1,1.829108E3,1.2913461E2,1.5370473E1,7.8583916E1,1.8120193E3,1.7088757E1,1.1786683E2,1.1267786E1,1.0871496E1,6.771242E1,1.7796414E3,3.2377995E1,4.6697456E1,7.116937E1,3.1061697E1,3.6650723E1],"tree_param":{"num_deleted":"0","num_feature":"8","num_nodes":"19","size_leaf_vector":"1"}},{"base_weights":[7.886271E-3,-8.7576E-2,9.9278614E-2,-4.1204758E-2,-1.6421328E-1,1.1609696E0,3.9039023E-2,-2.8531042E-1,8.0253854E-2,1.04084104E-1,1.5512887E-1,-1.5844865E-1,8.317639E-2,7.0830934E-2,-5.748735E-2,2.4393525E-2,-8.867923E-2,1.6697581E-1,4.9059386E-3],"categories":[],"categories_nodes":[],"categories_segments":[],"categories_sizes":[],"default_left":[0,0,0,0,0,0,0,0,0,0,0,0,0,0,0,0,0,0,0],"id":32,"left_children":[1,3,5,7,-1,9,11,13,15,-1,-1,-1,17,-1,-1,-1,-1,-1,-1],"loss_changes":[1.7825441E1,6.001654E1,6.67058E1,2.8665632E1,0E0,1.065155E0,6.011251E1,5.6768173E1,6.717247E1,0E0,0E0,0E0,5.3058876E1,0E0,0E0,0E0,0E0,0E0,0E0],"parents":[2147483647,0,0,1,1,2,2,3,3,5,5,6,6,7,7,8,8,12,12],"right_children":[2,4,6,8,-1,10,12,14,16,-1,-1,-1,18,-1,-1,-1,-1,-1,-1],"split_conditions":[4.333E1,4.25E1,4.5E1,1E0,-1.6421328E-1,1E0,4.667E1,3E0,3.75E1,1.04084104E-1,1.5512887E-1,-1.5844865E-1,4.75E1,7.0830934E-2,-5.748735E-2,2.4393525E-2,-8.867923E-2,1.6697581E-1,4.9059386E-3],"split_indices":[1,1,1,0,0,0,1,6,1,0,0,0,1,0,0,0,0,0,0],"split_type":[0,0,0,0,0,0,0,0,0,0,0,0,0,0,0,0,0,0,0],"sum_hessian":[2.040945E3,9.9826776E2,1.0426771E3,9.648909E2,3.3376816E1,5.490435E1,9.877728E2,3.2009134E2,6.4479956E2,2.1312695E1,3.3591652E1,2.9730944E1,9.580419E2,5.8553368E1,2.61538E2,5.6071375E2,8.408585E1,2.8237223E1,9.298047E2],"tree_param":{"num_deleted":"0","num_feature":"8","num_nodes":"19","size_leaf_vector":"1"}},{"base_weights":[-1.1970088E-2,1.5337426E-2,-6.6644603E-1,-9.578957E-2,1.699762E-1,-1.4967133E-1,2.9871915E-2,-4.4590525E-2,-2.0797427E-1,1.500678E-1,1.1383677E-1,7.076564E-1,-1.6960156E-1,-9.52879E-3,1.5796977E-1,-4.019156E-2,2.1856036E-2,1.437539E-1,4.5199327E-2],"categories":[],"categories_nodes":[],"categories_segments":[],"categories_sizes":[],"default_left":[0,0,0,0,0,0,0,0,0,0,0,0,0,0,0,0,0,0,0],"id":33,"left_children":[1,3,5,7,9,-1,11,13,-1,-1,15,17,-1,-1,-1,-1,-1,-1,-1],"loss_changes":[3.5801594E1,3.3071476E1,3.3283417E1,9.492378E1,4.929801E1,0E0,3.8743076E1,5.3564716E1,0E0,0E0,2.4483553E1,3.8902225E0,0E0,0E0,0E0,0E0,0E0,0E0,0E0],"parents":[2147483647,0,0,1,1,2,2,3,3,4,4,6,6,7,7,10,10,11,11],"right_children":[2,4,6,8,10,-1,12,14,-1,-1,16,18,-1,-1,-1,-1,-1,-1,-1],"split_conditions":[8.25E1,4.8E1,9.333E1,4.75E1,5E1,-1.4967133E-1,1E0,4.667E1,-2.0797427E-1,1.500678E-1,4E0,9.5E1,-1.6960156E-1,-9.52879E-3,1.5796977E-1,-4.019156E-2,2.1856036E-2,1.437539E-1,4.5199327E-2],"split_indices":[1,1,1,1,1,0,0,1,0,0,2,1,0,0,0,0,0,0,0],"split_type":[0,0,0,0,0,0,0,0,0,0,0,0,0,0,0,0,0,0,0],"sum_hessian":[2.0014796E3,1.9223461E3,7.913353E1,1.1187822E3,8.0356384E2,4.2189404E1,3.6944126E1,1.0863468E3,3.243542E1,3.803911E1,7.655247E2,2.5614262E1,1.1329865E1,1.0598699E3,2.647691E1,1.02445885E2,6.630788E2,8.902255E0,1.6712006E1],"tree_param":{"num_deleted":"0","num_feature":"8","num_nodes":"19","size_leaf_vector":"1"}},{"base_weights":[-2.216E-2,-2.2369409E-1,2.131285E-2,9.462189E-2,-1.4834315E-1,9.993954E-1,-2.4756487E-2,-2.006054E-1,1.0710742E0,1.5886551E-1,8.6179715E-1,-9.113054E-1,2.0247526E-2,4.762371E-3,-1.7236848E-1,1.5570597E-1,9.223446E-2,1.22953564E-1,3.729006E-2,-1.703312E-1,-4.167181E-2,1.5238231E-1,-4.865849E-3],"categories":[],"categories_nodes":[],"categories_segments":[],"categories_sizes":[],"default_left":[0,0,0,0,0,0,0,0,0,0,0,0,0,0,0,0,0,0,0,0,0,0,0],"id":34,"left_children":[1,3,5,7,-1,9,11,13,15,-1,17,19,21,-1,-1,-1,-1,-1,-1,-1,-1,-1,-1],"loss_changes":[1.7313284E1,1.147033E2,7.3294044E1,7.768385E1,0E0,2.1483994E0,6.2019386E1,6.252765E1,3.3085938E0,0E0,4.9104004E0,2.1495838E1,1.1465311E2,0E0,0E0,0E0,0E0,0E0,0E0,0E0,0E0,0E0,0E0],"parents":[2147483647,0,0,1,1,2,2,3,3,5,5,6,6,7,7,8,8,10,10,11,11,12,12],"right_children":[2,4,6,8,-1,10,12,14,16,-1,18,20,22,-1,-1,-1,-1,-1,-1,-1,-1,-1,-1],"split_conditions":[2.8E1,2.5E1,3E1,2.333E1,-1.4834315E-1,2E0,3.2E1,2.25E1,1E0,1.5886551E-1,4E0,3E0,3.25E1,4.762371E-3,-1.7236848E-1,1.5570597E-1,9.223446E-2,1.22953564E-1,3.729006E-2,-1.703312E-1,-4.167181E-2,1.5238231E-1,-4.865849E-3],"split_indices":[1,1,1,1,0,7,1,1,0,0,2,4,1,0,0,0,0,0,0,0,0,0,0],"split_type":[0,0,0,0,0,0,0,0,0,0,0,0,0,0,0,0,0,0,0,0,0,0,0],"sum_hessian":[1.9744183E3,3.495216E2,1.6248967E3,2.6755682E2,8.196478E1,7.206801E1,1.5528287E3,2.061136E2,6.144323E1,1.801167E1,5.4056343E1,7.3994705E1,1.478834E3,1.7376915E2,3.2344448E1,3.1639366E1,2.9803865E1,4.02482E1,1.3808144E1,3.7330914E1,3.666379E1,6.733797E1,1.411496E3],"tree_param":{"num_deleted":"0","num_feature":"8","num_nodes":"23","size_leaf_vector":"1"}},{"base_weights":[2.7717527E-3,5.432867E-1,-1.0334759E-2,-1.4683527E-1,1.2281228E0,-1.775422E-1,3.0630847E-2,2.6194182E-1,6.619056E-1,2.2401105E-1,-5.377248E-1,2.2586653E-1,-2.6125945E-2,1.520712E-1,-1.3970156E-4,-3.8125142E-2,6.5571055E-2,-8.504519E-2,1.03473306E-1,-6.579883E-2,5.9596095E-2,-1.9019756E-1,3.30038E-3],"categories":[],"categories_nodes":[],"categories_segments":[],"categories_sizes":[],"default_left":[0,0,0,0,0,0,0,0,0,0,0,0,0,0,0,0,0,0,0,0,0,0,0],"id":35,"left_children":[1,3,5,-1,7,9,11,-1,13,15,17,19,21,-1,-1,-1,-1,-1,-1,-1,-1,-1,-1],"loss_changes":[1.4059136E1,5.897189E1,1.3279465E1,0E0,1.7518784E1,5.530919E1,1.7264072E1,0E0,9.628619E0,3.2662636E1,5.1533707E1,7.600233E1,1.0276922E2,0E0,0E0,0E0,0E0,0E0,0E0,0E0,0E0,0E0,0E0],"parents":[2147483647,0,0,1,1,2,2,4,4,5,5,6,6,8,8,9,9,10,10,11,11,12,12],"right_children":[2,4,6,-1,8,10,12,-1,14,16,18,20,22,-1,-1,-1,-1,-1,-1,-1,-1,-1,-1],"split_conditions":[2E0,3.333E1,3E0,-1.4683527E-1,3.5E1,3E0,3.25E1,2.6194182E-1,1E0,2E0,3E0,1E0,3.333E1,1.520712E-1,-1.3970156E-4,-3.8125142E-2,6.5571055E-2,-8.504519E-2,1.03473306E-1,-6.579883E-2,5.9596095E-2,-1.9019756E-1,3.30038E-3],"split_indices":[5,1,5,0,1,6,1,0,4,7,7,0,1,0,0,0,0,0,0,0,0,0,0],"split_type":[0,0,0,0,0,0,0,0,0,0,0,0,0,0,0,0,0,0,0,0,0,0,0],"sum_hessian":[1.982585E3,4.5881905E1,1.9367031E3,1.24969E1,3.3385006E1,3.8039453E2,1.5563086E3,1.1060101E1,2.2324905E1,1.8006422E2,2.003303E2,3.4979196E2,1.2065166E3,1.1008575E1,1.131633E1,6.771735E1,1.1234688E2,1.7823538E2,2.2094923E1,9.1198166E1,2.585938E2,3.8861813E1,1.1676548E3],"tree_param":{"num_deleted":"0","num_feature":"8","num_nodes":"23","size_leaf_vector":"1"}},{"base_weights":[2.0896206E-3,9.283603E-3,-1.2717023E-1,5.2048546E-1,-2.8416363E-3,-1.08246375E-2,7.3256475E-1,-2.1936075E-1,4.7288354E-2,1.4271738E-1,3.4144785E-2,2.5361337E-2,-7.6234E-2,2.9934045E-2,2.7937093E-4],"categories":[],"categories_nodes":[],"categories_segments":[],"categories_sizes":[],"default_left":[0,0,0,0,0,0,0,0,0,0,0,0,0,0,0],"id":36,"left_children":[1,3,-1,5,7,-1,9,11,13,-1,-1,-1,-1,-1,-1],"loss_changes":[1.5204412E1,1.2117384E1,0E0,5.949687E0,2.074765E1,0E0,6.679722E0,6.601095E1,1.4297217E1,0E0,0E0,0E0,0E0,0E0,0E0],"parents":[2147483647,0,0,1,1,3,3,4,4,6,6,7,7,8,8],"right_children":[2,4,-1,6,8,-1,10,12,14,-1,-1,-1,-1,-1,-1],"split_conditions":[7E0,2E0,-1.2717023E-1,2E0,3E0,-1.08246375E-2,4E0,3E0,2E0,1.4271738E-1,3.4144785E-2,2.5361337E-2,-7.6234E-2,2.9934045E-2,2.7937093E-4],"split_indices":[2,5,0,3,5,0,2,6,3,0,0,0,0,0,0],"split_type":[0,0,0,0,0,0,0,0,0,0,0,0,0,0,0],"sum_hessian":[1.9655394E3,1.9535438E3,1.1995516E1,4.4193462E1,1.9093503E3,1.1538697E1,3.2654766E1,3.58259E2,1.5510914E3,1.4960778E1,1.7693987E1,1.7731499E2,1.80944E2,2.7794675E2,1.2731447E3],"tree_param":{"num_deleted":"0","num_feature":"8","num_nodes":"15","size_leaf_vector":"1"}},{"base_weights":[6.2011805E-4,-1.9867602E-1,4.091266E-2,9.9205784E-2,-1.4539494E-1,9.141609E-1,2.9589753E-3,-1.7089409E-1,1.0148755E0,1.5006797E-1,7.7201176E-1,-8.4092975E-1,4.2270366E-2,5.0919326E-3,-1.648979E-1,1.6406985E-1,9.350703E-2,7.248657E-2,1.1350767E-1,-1.6317567E-1,-3.7142657E-2,1.3948499E-1,-9.248806E-4],"categories":[],"categories_nodes":[],"categories_segments":[],"categories_sizes":[],"default_left":[0,0,0,0,0,0,0,0,0,0,0,0,0,0,0,0,0,0,0,0,0,0,0],"id":37,"left_children":[1,3,5,7,-1,9,11,13,15,-1,17,19,21,-1,-1,-1,-1,-1,-1,-1,-1,-1,-1],"loss_changes":[1.5655072E1,1.0040849E2,5.374375E1,6.3295105E1,0E0,2.2916832E0,5.1632683E1,5.1659206E1,3.6632233E0,0E0,8.7018013E-1,1.9066658E1,8.4385666E1,0E0,0E0,0E0,0E0,0E0,0E0,0E0,0E0,0E0,0E0],"parents":[2147483647,0,0,1,1,2,2,3,3,5,5,6,6,7,7,8,8,10,10,11,11,12,12],"right_children":[2,4,6,8,-1,10,12,14,16,-1,18,20,22,-1,-1,-1,-1,-1,-1,-1,-1,-1,-1],"split_conditions":[2.8E1,2.5E1,3E1,2.333E1,-1.4539494E-1,2E0,3.2E1,2.25E1,2.4E1,1.5006797E-1,3E0,3E0,3.25E1,5.0919326E-3,-1.648979E-1,1.6406985E-1,9.350703E-2,7.248657E-2,1.1350767E-1,-1.6317567E-1,-3.7142657E-2,1.3948499E-1,-9.248806E-4],"split_indices":[1,1,1,1,0,7,1,1,1,0,4,4,1,0,0,0,0,0,0,0,0,0,0],"split_type":[0,0,0,0,0,0,0,0,0,0,0,0,0,0,0,0,0,0,0,0,0,0,0],"sum_hessian":[1.9473223E3,3.26761E2,1.6205613E3,2.54049E2,7.271198E1,6.644173E1,1.5541195E3,1.9687193E2,5.7177063E1,1.6658432E1,4.97833E1,6.81751E1,1.4859445E3,1.6839505E2,2.847688E1,1.966423E1,3.7512833E1,2.912072E1,2.0662577E1,3.3002533E1,3.517257E1,6.1818474E1,1.424126E3],"tree_param":{"num_deleted":"0","num_feature":"8","num_nodes":"23","size_leaf_vector":"1"}},{"base_weights":[2.0263663E-3,-6.321316E-2,1.10935666E-1,-8.739955E-3,-2.1150708E0,8.368952E-1,-6.938129E-2,-7.114271E-2,5.2502537E-1,-2.761262E-1,-1.7505708E-1,5.752516E-2,1.3838155E0,-2.4585395E-1,2.1661108E-2,-2.5604418E-3,-1.9489877E-1,9.079625E-2,-2.0572929E-1,2.0235048E-1,-2.3164754E-1,2.2571795E-1,1.5121256E-1,-7.0956394E-2,1.4579573E-2],"categories":[],"categories_nodes":[],"categories_segments":[],"categories_sizes":[],"default_left":[0,0,0,0,0,0,0,0,0,0,0,0,0,0,0,0,0,0,0,0,0,0,0,0,0],"id":38,"left_children":[1,3,5,7,9,11,13,15,17,-1,-1,19,21,-1,23,-1,-1,-1,-1,-1,-1,-1,-1,-1,-1],"loss_changes":[1.3717308E1,1.3493047E2,9.473729E1,3.9253933E1,4.5755005E-1,6.128531E1,1.058658E2,8.213292E1,6.839952E1,0E0,0E0,2.0412057E2,2.127594E0,0E0,3.4968075E1,0E0,0E0,0E0,0E0,0E0,0E0,0E0,0E0,0E0,0E0],"parents":[2147483647,0,0,1,1,2,2,3,3,4,4,5,5,6,6,7,7,8,8,11,11,12,12,14,14],"right_children":[2,4,6,8,10,12,14,16,18,-1,-1,20,22,-1,24,-1,-1,-1,-1,-1,-1,-1,-1,-1,-1],"split_conditions":[5.333E1,5.25E1,5.75E1,4.8E1,4E0,5.6E1,6E1,4.75E1,5E0,-2.761262E-1,-1.7505708E-1,5.5E1,3E0,-2.4585395E-1,6.333E1,-2.5604418E-3,-1.9489877E-1,9.079625E-2,-2.0572929E-1,2.0235048E-1,-2.3164754E-1,2.2571795E-1,1.5121256E-1,-7.0956394E-2,1.4579573E-2],"split_indices":[1,1,1,1,4,1,1,1,2,0,0,1,5,0,1,0,0,0,0,0,0,0,0,0,0],"split_type":[0,0,0,0,0,0,0,0,0,0,0,0,0,0,0,0,0,0,0,0,0,0,0,0,0],"sum_hessian":[1.9284166E3,1.2062832E3,7.221334E2,1.1761636E3,3.0119682E1,1.4288158E2,5.792519E2,1.053905E3,1.2225853E2,2.0437437E1,9.682245E0,5.942149E1,8.3460075E1,2.414613E1,5.551057E2,1.02276404E3,3.1141006E1,1.11165E2,1.1093532E1,3.2742493E1,2.6678999E1,1.139447E1,7.2065605E1,7.717976E1,4.7792596E2],"tree_param":{"num_deleted":"0","num_feature":"8","num_nodes":"25","size_leaf_vector":"1"}},{"base_weights":[2.0807062E-3,1.7757919E-2,-4.6626046E-1,8.434033E-3,1.7374057E-1,-6.745721E-3,-1.4989321E-1,1.9072795E-2,-1.5868425E-1,-1.2928538E-1,6.431251E-1,-1.2784699E-3,5.0934248E-2,1.3701712E-1,3.9625492E-2],"categories":[],"categories_nodes":[],"categories_segments":[],"categories_sizes":[],"default_left":[0,0,0,0,0,0,0,0,0,0,0,0,0,0,0],"id":39,"left_children":[1,3,5,7,-1,9,-1,11,-1,-1,13,-1,-1,-1,-1],"loss_changes":[1.4063274E1,2.4981403E1,2.271297E1,2.6408377E1,0E0,2.9243513E1,0E0,2.2399994E1,0E0,0E0,3.6846762E0,0E0,0E0,0E0,0E0],"parents":[2147483647,0,0,1,1,2,2,3,3,5,5,7,7,10,10],"right_children":[2,4,6,8,-1,10,-1,12,-1,-1,14,-1,-1,-1,-1],"split_conditions":[8.4E1,8.333E1,1E0,8.25E1,1.7374057E-1,9.333E1,-1.4989321E-1,7.6E1,-1.5868425E-1,-1.2928538E-1,9.5E1,-1.2784699E-3,5.0934248E-2,1.3701712E-1,3.9625492E-2],"split_indices":[1,1,0,1,0,1,0,1,0,0,1,0,0,0,0],"split_type":[0,0,0,0,0,0,0,0,0,0,0,0,0,0,0],"sum_hessian":[1.9130397E3,1.8521016E3,6.0938126E1,1.8413401E3,1.0761433E1,3.9357834E1,2.1580294E1,1.8279752E3,1.336485E1,1.4481798E1,2.4876034E1,1.7049872E3,1.22988075E2,8.235322E0,1.6640713E1],"tree_param":{"num_deleted":"0","num_feature":"8","num_nodes":"15","size_leaf_vector":"1"}},{"base_weights":[-1.7079758E-2,1.8416022E-1,-5.3853747E-2,2.639223E-1,-5.45569E-1,-4.1492265E-1,1.320791E-2,1.4215945E-1,1.2476022E0,3.8583574E-3,-1.8568486E-1,3.349111E-1,-6.542298E-1,8.5509855E-1,-5.47629E-3,7.0519075E-2,-7.850404E-3,2.0623443E-1,9.638037E-2,-7.2252356E-2,9.8912045E-2,3.898702E-2,-9.406866E-2,6.76441E-2,1.2531273E-1,-6.682028E-2,1.4930136E-3],"categories":[],"categories_nodes":[],"categories_segments":[],"categories_sizes":[],"default_left":[0,0,0,0,0,0,0,0,0,0,0,0,0,0,0,0,0,0,0,0,0,0,0,0,0,0,0],"id":40,"left_children":[1,3,5,7,9,11,13,15,17,-1,-1,19,21,23,25,-1,-1,-1,-1,-1,-1,-1,-1,-1,-1,-1,-1],"loss_changes":[1.4005889E1,1.7179436E1,3.87429E1,3.1468653E1,1.7248013E1,4.5212715E1,2.1244806E1,2.2320162E1,4.63377E0,0E0,0E0,2.94439E1,2.6215889E1,1.0173626E0,1.332299E1,0E0,0E0,0E0,0E0,0E0,0E0,0E0,0E0,0E0,0E0,0E0,0E0],"parents":[2147483647,0,0,1,1,2,2,3,3,4,4,5,5,6,6,7,7,8,8,11,11,12,12,13,13,14,14],"right_children":[2,4,6,8,10,12,14,16,18,-1,-1,20,22,24,26,-1,-1,-1,-1,-1,-1,-1,-1,-1,-1,-1,-1],"split_conditions":[3E0,3E0,3E0,3E0,3E0,1E0,2E0,3E0,2E0,3.8583574E-3,-1.8568486E-1,2E0,2E0,4E0,1E0,7.0519075E-2,-7.850404E-3,2.0623443E-1,9.638037E-2,-7.2252356E-2,9.8912045E-2,3.898702E-2,-9.406866E-2,6.76441E-2,1.2531273E-1,-6.682028E-2,1.4930136E-3],"split_indices":[2,4,5,3,7,4,7,6,7,0,0,3,5,2,3,0,0,0,0,0,0,0,0,0,0,0,0],"split_type":[0,0,0,0,0,0,0,0,0,0,0,0,0,0,0,0,0,0,0,0,0,0,0,0,0,0,0],"sum_hessian":[1.8900105E3,2.9133163E2,1.5986788E3,2.6325906E2,2.8072577E1,2.4952005E2,1.3491588E3,2.3538248E2,2.787658E1,1.8593891E1,9.478685E0,6.026109E1,1.8925896E2,2.8222197E1,1.3209366E3,7.359616E1,1.6178632E2,1.1557315E1,1.6319265E1,2.0749287E1,3.9511803E1,2.3203638E1,1.6605533E2,1.3420707E1,1.4801489E1,4.039159E1,1.280545E3],"tree_param":{"num_deleted":"0","num_feature":"8","num_nodes":"27","size_leaf_vector":"1"}},{"base_weights":[-1.1825804E-2,-1.10668205E-1,7.7374615E-2,6.2034223E-3,-5.8761615E-1,1.1091245E0,1.9297086E-2,-7.875058E-2,1.0850639E0,-2.3090312E-1,-3.5555252E-1,9.733928E-2,1.4862143E-1,-1.5157384E-1,5.859159E-2,5.5660354E-3,-1.7628689E-1,7.308142E-2,1.4772405E-1,-1.5553164E-1,6.603491E-4,-1.7092453E-1,1.0865777E-2],"categories":[],"categories_nodes":[],"categories_segments":[],"categories_sizes":[],"default_left":[0,0,0,0,0,0,0,0,0,0,0,0,0,0,0,0,0,0,0,0,0,0,0],"id":41,"left_children":[1,3,5,7,9,11,13,15,17,-1,19,-1,-1,-1,21,-1,-1,-1,-1,-1,-1,-1,-1],"loss_changes":[1.653521E1,4.9590496E1,5.9051815E1,6.5679955E1,5.4436195E1,1.0445786E0,4.7699154E1,1.1754405E2,3.081585E0,0E0,5.206159E1,0E0,0E0,0E0,4.5049446E1,0E0,0E0,0E0,0E0,0E0,0E0,0E0,0E0],"parents":[2147483647,0,0,1,1,2,2,3,3,4,4,5,5,6,6,7,7,8,8,10,10,14,14],"right_children":[2,4,6,8,10,12,14,16,18,-1,20,-1,-1,-1,22,-1,-1,-1,-1,-1,-1,-1,-1],"split_conditions":[4.333E1,3.75E1,4.5E1,3.6E1,2E0,1E0,4.667E1,3.5E1,3.667E1,-2.3090312E-1,4E1,9.733928E-2,1.4862143E-1,-1.5157384E-1,1E0,5.5660354E-3,-1.7628689E-1,7.308142E-2,1.4772405E-1,-1.5553164E-1,6.603491E-4,-1.7092453E-1,1.0865777E-2],"split_indices":[1,1,1,1,3,0,1,1,1,0,1,0,0,0,3,0,0,0,0,0,0,0,0],"split_type":[0,0,0,0,0,0,0,0,0,0,0,0,0,0,0,0,0,0,0,0,0,0,0],"sum_hessian":[1.8732548E3,8.884757E2,9.84779E2,7.144844E2,1.7399133E2,5.141791E1,9.333611E2,6.6327563E2,5.120875E1,2.4199783E1,1.4979155E2,1.952315E1,3.189476E1,2.6430464E1,9.069306E2,6.098716E2,5.3404095E1,1.4379435E1,3.6829315E1,4.029689E1,1.0949466E2,1.8514606E1,8.88416E2],"tree_param":{"num_deleted":"0","num_feature":"8","num_nodes":"23","size_leaf_vector":"1"}},{"base_weights":[-3.2475784E-2,-1.622781E-1,8.138643E-2,-9.193964E-2,-1.5049037E-1,1.0558546E0,3.021164E-2,2.0441163E-2,-5.630841E-1,8.4822017E-1,1.4199361E-1,-1.4574435E-1,6.5048225E-2,-1.7984372E-2,7.534027E-2,-1.600407E-2,-1.6102953E-1,1.24145836E-1,7.127549E-2,-1.6177881E-1,1.1173782E-2],"categories":[],"categories_nodes":[],"categories_segments":[],"categories_sizes":[],"default_left":[0,0,0,0,0,0,0,0,0,0,0,0,0,0,0,0,0,0,0,0,0],"id":42,"left_children":[1,3,5,7,-1,9,11,13,15,17,-1,-1,19,-1,-1,-1,-1,-1,-1,-1,-1],"loss_changes":[2.7309555E1,6.704089E1,4.9062305E1,4.3055305E1,0E0,3.1874466E-1,4.115021E1,6.960275E1,5.3047314E1,4.6644974E-1,0E0,0E0,3.8102802E1,0E0,0E0,0E0,0E0,0E0,0E0,0E0,0E0],"parents":[2147483647,0,0,1,1,2,2,3,3,5,5,6,6,7,7,8,8,9,9,12,12],"right_children":[2,4,6,8,-1,10,12,14,16,18,-1,-1,20,-1,-1,-1,-1,-1,-1,-1,-1],"split_conditions":[4.333E1,6E0,4.5E1,3.75E1,-1.5049037E-1,6E0,4.667E1,3.333E1,3E0,1E0,1.4199361E-1,-1.4574435E-1,1E0,-1.7984372E-2,7.534027E-2,-1.600407E-2,-1.6102953E-1,1.24145836E-1,7.127549E-2,-1.6177881E-1,1.1173782E-2],"split_indices":[1,2,1,1,0,2,1,1,3,4,0,0,3,0,0,0,0,0,0,0,0],"split_type":[0,0,0,0,0,0,0,0,0,0,0,0,0,0,0,0,0,0,0,0,0],"sum_hessian":[1.8457053E3,8.6226263E2,9.8344275E2,8.118283E2,5.043433E1,4.7991E1,9.354517E2,6.5632886E2,1.5549939E2,2.2523674E1,2.5467327E1,2.4179867E1,9.1127185E2,5.134403E2,1.428886E2,1.01860634E2,5.3638763E1,1.0537264E1,1.1986409E1,1.7200645E1,8.940712E2],"tree_param":{"num_deleted":"0","num_feature":"8","num_nodes":"21","size_leaf_vector":"1"}},{"base_weights":[2.4177724E-2,3.94736E-2,-4.544215E-1,3.1236105E-2,1.6104284E-1,-1.300973E-1,-4.5177825E-3,4.1408498E-2,-1.5220745E-1,4.0137604E-1,-1.4457381E-1,2.2390361E-3,4.1569524E-2,-9.797279E-3,1.08538195E-1],"categories":[],"categories_nodes":[],"categories_segments":[],"categories_sizes":[],"default_left":[0,0,0,0,0,0,0,0,0,0,0,0,0,0,0],"id":43,"left_children":[1,3,5,7,-1,-1,9,11,-1,13,-1,-1,-1,-1,-1],"loss_changes":[1.37543335E1,1.9700212E1,1.6804169E1,2.4238176E1,0E0,0E0,1.7942709E1,1.2498493E1,0E0,6.8657584E0,0E0,0E0,0E0,0E0,0E0],"parents":[2147483647,0,0,1,1,2,2,3,3,6,6,7,7,9,9],"right_children":[2,4,6,8,-1,-1,10,12,-1,14,-1,-1,-1,-1,-1],"split_conditions":[8.4E1,8.333E1,9.333E1,8.25E1,1.6104284E-1,-1.300973E-1,4E0,7.6E1,-1.5220745E-1,1E2,-1.4457381E-1,2.2390361E-3,4.1569524E-2,-9.797279E-3,1.08538195E-1],"split_indices":[1,1,1,1,0,0,3,1,0,1,0,0,0,0,0],"split_type":[0,0,0,0,0,0,0,0,0,0,0,0,0,0,0],"sum_hessian":[1.8750571E3,1.8179655E3,5.7091667E1,1.807792E3,1.0173483E1,2.2870892E1,3.4220776E1,1.7949629E3,1.2829143E1,2.6198132E1,8.022646E0,1.6740111E3,1.2095172E2,1.3961315E1,1.2236816E1],"tree_param":{"num_deleted":"0","num_feature":"8","num_nodes":"15","size_leaf_vector":"1"}},{"base_weights":[9.4395736E-4,3.4318518E-2,-3.9516598E-1,5.1855315E-3,1.4197063E-1,-2.254991E-1,-1.545839E-1,2.4420345E-2,-2.147519E-1,9.334822E-2,-1.5053621E-1,2.1847035E-4,1.474858E-1,3.452386E-2,-2.3732204E-2],"categories":[],"categories_nodes":[],"categories_segments":[],"categories_sizes":[],"default_left":[0,0,0,0,0,0,0,0,0,0,0,0,0,0,0],"id":44,"left_children":[1,3,5,7,-1,-1,9,11,-1,13,-1,-1,-1,-1,-1],"loss_changes":[2.4462019E1,5.777594E1,5.1752426E1,5.8212982E1,0E0,0E0,3.4708035E1,4.5384975E1,0E0,6.0596733E0,0E0,0E0,0E0,0E0,0E0],"parents":[2147483647,0,0,1,1,2,2,3,3,6,6,7,7,9,9],"right_children":[2,4,6,8,-1,-1,10,12,-1,14,-1,-1,-1,-1,-1],"split_conditions":[7.75E1,7.6E1,8E1,7.5E1,1.4197063E-1,-2.254991E-1,5E0,7.333E1,-2.147519E-1,8.4E1,-1.5053621E-1,2.1847035E-4,1.474858E-1,3.452386E-2,-2.3732204E-2],"split_indices":[1,1,1,1,0,0,2,1,0,1,0,0,0,0,0],"split_type":[0,0,0,0,0,0,0,0,0,0,0,0,0,0,0],"sum_hessian":[1.8481506E3,1.705461E3,1.4268964E2,1.6648351E3,4.0625973E1,1.8615335E1,1.2407431E2,1.6484525E3,1.638254E1,1.0231474E2,2.1759563E1,1.619547E3,2.890549E1,6.1138435E1,4.117631E1],"tree_param":{"num_deleted":"0","num_feature":"8","num_nodes":"15","size_leaf_vector":"1"}},{"base_weights":[1.5240158E-2,2.1362463E-2,-1.2154569E-1,-9.1950506E-2,7.154591E-2,7.12809E-2,-1.6816625E-1,1.8968571E0,-6.838858E-3,-7.964038E-3,1.3231981E-1,3.3455577E-1,1.9085084E-1,-1.7154992E-1,6.778129E-3],"categories":[],"categories_nodes":[],"categories_segments":[],"categories_sizes":[],"default_left":[0,0,0,0,0,0,0,0,0,0,0,0,0,0,0],"id":45,"left_children":[1,3,-1,5,7,9,-1,11,13,-1,-1,-1,-1,-1,-1],"loss_changes":[1.1776167E1,1.0451095E1,0E0,1.2217492E2,1.8222412E2,7.281397E1,0E0,8.961685E0,1.1258836E2,0E0,0E0,0E0,0E0,0E0,0E0],"parents":[2147483647,0,0,1,1,3,3,4,4,5,5,7,7,8,8],"right_children":[2,4,-1,6,8,10,-1,12,14,-1,-1,-1,-1,-1,-1],"split_conditions":[7E0,3.333E1,-1.2154569E-1,3.25E1,3.5E1,3.2E1,-1.6816625E-1,3E0,3.6E1,-7.964038E-3,1.3231981E-1,3.3455577E-1,1.9085084E-1,-1.7154992E-1,6.778129E-3],"split_indices":[2,1,0,1,1,1,0,6,1,0,0,0,0,0,0],"split_type":[0,0,0,0,0,0,0,0,0,0,0,0,0,0,0],"sum_hessian":[1.8452561E3,1.835525E3,9.731061E0,5.631132E2,1.2724119E3,5.0229306E2,6.0820194E1,5.134019E1,1.2210717E3,4.444043E2,5.788875E1,9.922109E0,4.1418083E1,5.095625E1,1.1701154E3],"tree_param":{"num_deleted":"0","num_feature":"8","num_nodes":"15","size_leaf_vector":"1"}},{"base_weights":[1.679516E-2,2.2321321E-2,-1.18821E-1,6.848644E-2,-8.670882E-2,-1.1788058E-2,1.3148413E0,-2.22363E-1,-4.065969E-3,3.3235156E-3,-2.1446247E-1,2.0817994E-1,1.4366849E-1,7.2060704E-2,-1.5704716E-2],"categories":[],"categories_nodes":[],"categories_segments":[],"categories_sizes":[],"default_left":[0,0,0,0,0,0,0,0,0,0,0,0,0,0,0],"id":46,"left_children":[1,3,-1,5,7,9,11,-1,13,-1,-1,-1,-1,-1,-1],"loss_changes":[1.0414066E1,9.255361E0,0E0,1.2923425E2,8.0803085E1,8.685119E1,1.2353821E0,0E0,4.119124E1,0E0,0E0,0E0,0E0,0E0,0E0],"parents":[2147483647,0,0,1,1,3,3,4,4,5,5,6,6,8,8],"right_children":[2,4,-1,6,8,10,12,-1,14,-1,-1,-1,-1,-1,-1],"split_conditions":[7E0,5.75E1,-1.18821E-1,5.6E1,6E1,5.5E1,3E0,-2.22363E-1,2E0,3.3235156E-3,-2.1446247E-1,2.0817994E-1,1.4366849E-1,7.2060704E-2,-1.5704716E-2],"split_indices":[2,1,0,1,1,1,5,0,3,0,0,0,0,0,0],"split_type":[0,0,0,0,0,0,0,0,0,0,0,0,0,0,0],"sum_hessian":[1.8452836E3,1.8363937E3,8.889912E0,1.2904188E3,5.459748E2,1.2133597E3,7.7059074E1,2.3073898E1,5.2290094E2,1.188111E3,2.5248793E1,1.1396141E1,6.566293E1,8.9980606E1,4.3292032E2],"tree_param":{"num_deleted":"0","num_feature":"8","num_nodes":"15","size_leaf_vector":"1"}},{"base_weights":[6.333989E-3,5.3902633E-2,-1.071897E-1,-1.8039184E-2,1.2485266E0,-8.4248716E-1,6.103979E-2,1.6951676E-2,-1.9356573E-1,1.8907051E-1,1.3737324E-1,3.822722E-1,-1.3334656E0,1.6471924E-1,-1.12351984E-1,-3.0714204E-3,1.8418439E-1,1.5082987E-2,6.417849E-2,-2.3313338E-1,-3.366448E-3,-2.4297188E-1,-5.196169E-4],"categories":[],"categories_nodes":[],"categories_segments":[],"categories_sizes":[],"default_left":[0,0,0,0,0,0,0,0,0,0,0,0,0,0,0,0,0,0,0,0,0,0,0],"id":47,"left_children":[1,3,5,7,9,11,13,15,-1,-1,-1,17,19,-1,21,-1,-1,-1,-1,-1,-1,-1,-1],"loss_changes":[9.851326E0,1.10503525E2,6.669354E1,6.8538734E1,2.5510406E-1,6.0920624E1,1.0129787E2,7.82398E1,0E0,0E0,0E0,1.1215463E0,5.9186256E1,0E0,8.1421814E1,0E0,0E0,0E0,0E0,0E0,0E0,0E0,0E0],"parents":[2147483647,0,0,1,1,2,2,3,3,4,4,5,5,6,6,7,7,11,11,12,12,14,14],"right_children":[2,4,6,8,10,12,14,16,-1,-1,-1,18,20,-1,22,-1,-1,-1,-1,-1,-1,-1,-1],"split_conditions":[5.75E1,5.6E1,6.333E1,5.5E1,3E0,2E0,6.5E1,5.333E1,-1.9356573E-1,1.8907051E-1,1.3737324E-1,1E0,6E0,1.6471924E-1,6.667E1,-3.0714204E-3,1.8418439E-1,1.5082987E-2,6.417849E-2,-2.3313338E-1,-3.366448E-3,-2.4297188E-1,-5.196169E-4],"split_indices":[1,1,1,1,5,3,1,1,0,0,0,4,2,0,1,0,0,0,0,0,0,0,0],"split_type":[0,0,0,0,0,0,0,0,0,0,0,0,0,0,0,0,0,0,0,0,0,0,0],"sum_hessian":[1.8219844E3,1.2843815E3,5.3760284E2,1.2124502E3,7.193126E1,9.9275955E1,4.383269E2,1.1877786E3,2.4671679E1,1.1181786E1,6.0749474E1,2.8478716E1,7.079724E1,4.975592E1,3.8857098E2,1.1565911E3,3.1187473E1,1.1678029E1,1.6800688E1,4.7338245E1,2.3458998E1,1.948688E1,3.690841E2],"tree_param":{"num_deleted":"0","num_feature":"8","num_nodes":"23","size_leaf_vector":"1"}},{"base_weights":[3.9558555E-3,-1.14463575E-1,5.53473E-2,3.0957693E-2,-1.6069773E-1,1.7196505E0,-1.5534932E-2,-9.933584E-2,1.0505224E0,2.2692212E-1,1.4890222E-1,-1.6447438E-1,4.1073024E-2,2.0240476E-2,-5.6757193E-2,1.0015728E-1,1.4178048E-1,1.2377578E-1,-1.0354461E-3],"categories":[],"categories_nodes":[],"categories_segments":[],"categories_sizes":[],"default_left":[0,0,0,0,0,0,0,0,0,0,0,0,0,0,0,0,0,0,0],"id":48,"left_children":[1,3,5,7,-1,9,11,13,15,-1,-1,-1,17,-1,-1,-1,-1,-1,-1],"loss_changes":[1.0961755E1,9.8338974E1,1.4820403E2,6.507282E1,0E0,1.9577332E0,9.36239E1,4.455069E1,5.440712E-1,0E0,0E0,0E0,5.785412E1,0E0,0E0,0E0,0E0,0E0,0E0],"parents":[2147483647,0,0,1,1,2,2,3,3,5,5,6,6,7,7,8,8,12,12],"right_children":[2,4,6,8,-1,10,12,14,16,-1,-1,-1,18,-1,-1,-1,-1,-1,-1],"split_conditions":[3.333E1,3.25E1,3.5E1,3.2E1,-1.6069773E-1,3E0,3.6E1,2.5E1,3E0,2.2692212E-1,1.4890222E-1,-1.6447438E-1,3.75E1,2.0240476E-2,-5.6757193E-2,1.0015728E-1,1.4178048E-1,1.2377578E-1,-1.0354461E-3],"split_indices":[1,1,1,1,0,7,1,1,3,0,0,0,1,0,0,0,0,0,0],"split_type":[0,0,0,0,0,0,0,0,0,0,0,0,0,0,0,0,0,0,0],"sum_hessian":[1.7989714E3,5.4403064E2,1.2549408E3,4.878834E2,5.6147232E1,5.0218384E1,1.2047224E3,4.334809E2,5.4402496E1,3.3064613E1,1.7153769E1,4.67555E1,1.1579669E3,2.5353073E2,1.7995016E2,2.5498444E1,2.890405E1,5.3780647E1,1.1041863E3],"tree_param":{"num_deleted":"0","num_feature":"8","num_nodes":"19","size_leaf_vector":"1"}},{"base_weights":[9.964477E-3,1.7063706E-1,-1.7058995E-2,-4.4252362E-2,9.6171355E-1,-1.4078833E-1,3.222826E-2,1.539748E-1,-1.6230482E-1,1.556823E-1,7.470076E-1,9.120356E-1,-9.328739E-3,4.760731E-2,-9.06273E-2,1.3814025E-1,-2.6621737E-2,7.7159464E-2,1.22448914E-1,-8.642636E-2,2.9309224E-3],"categories":[],"categories_nodes":[],"categories_segments":[],"categories_sizes":[],"default_left":[0,0,0,0,0,0,0,0,0,0,0,0,0,0,0,0,0,0,0,0,0],"id":49,"left_children":[1,3,5,7,9,-1,11,13,-1,-1,15,17,19,-1,-1,-1,-1,-1,-1,-1,-1],"loss_changes":[7.779499E0,4.3897667E1,8.847282E1,5.3733894E1,3.0703163E0,0E0,5.3871086E1,4.0808502E1,0E0,0E0,1.51839695E1,1.3481178E0,3.447019E1,0E0,0E0,0E0,0E0,0E0,0E0,0E0,0E0],"parents":[2147483647,0,0,1,1,2,2,3,3,4,4,6,6,7,7,10,10,11,11,12,12],"right_children":[2,4,6,8,10,-1,12,14,-1,-1,16,18,20,-1,-1,-1,-1,-1,-1,-1,-1],"split_conditions":[2.5E1,2.333E1,2.8E1,2.25E1,2.4E1,-1.4078833E-1,3E1,3E0,-1.6230482E-1,1.556823E-1,2E0,2E0,3.2E1,4.760731E-2,-9.06273E-2,1.3814025E-1,-2.6621737E-2,7.7159464E-2,1.22448914E-1,-8.642636E-2,2.9309224E-3],"split_indices":[1,1,1,1,1,0,1,4,0,0,2,4,1,0,0,0,0,0,0,0,0],"split_type":[0,0,0,0,0,0,0,0,0,0,0,0,0,0,0,0,0,0,0,0,0],"sum_hessian":[1.7898754E3,2.568545E2,1.5330209E3,2.0280367E2,5.405082E1,6.0966484E1,1.4720543E3,1.7723451E2,2.5569155E1,1.8398647E1,3.5652172E1,6.5355286E1,1.4066991E3,1.4010725E2,3.712726E1,2.4786545E1,1.0865625E1,2.2764011E1,4.2591278E1,6.254954E1,1.3441495E3],"tree_param":{"num_deleted":"0","num_feature":"8","num_nodes":"21","size_leaf_vector":"1"}},{"base_weights":[4.018494E-3,6.883967E-2,-7.341899E-2,1.0438149E-1,-5.85578E-1,-6.717233E-1,-1.0930823E-2,3.5208266E-2,5.4162693E-1,-8.704558E-2,-1.9480243E-1,7.3581815E-2,-9.588716E-1,4.8325807E-1,-1.0507229E-1,-1.6565468E-2,1.8679043E-2,-5.1953755E-3,1.3425659E-1,6.487246E-2,-6.542543E-2,-1.5628442E-1,8.217095E-2,2.6491083E-2,2.0548238E-1,-1.3627711E-1,-6.663868E-3],"categories":[],"categories_nodes":[],"categories_segments":[],"categories_sizes":[],"default_left":[0,0,0,0,0,0,0,0,0,0,0,0,0,0,0,0,0,0,0,0,0,0,0,0,0,0,0],"id":50,"left_children":[1,3,5,7,9,11,13,15,17,19,-1,-1,21,23,25,-1,-1,-1,-1,-1,-1,-1,-1,-1,-1,-1,-1],"loss_changes":[8.918423E0,2.2561518E1,3.0260553E1,2.7751411E1,2.6163465E1,2.904881E1,3.4211834E1,1.698934E1,4.3341637E1,1.0668226E1,0E0,0E0,3.8315544E1,3.777281E1,3.1447903E1,0E0,0E0,0E0,0E0,0E0,0E0,0E0,0E0,0E0,0E0,0E0,0E0],"parents":[2147483647,0,0,1,1,2,2,3,3,4,4,5,5,6,6,7,7,8,8,9,9,12,12,13,13,14,14],"right_children":[2,4,6,8,10,12,14,16,18,20,-1,-1,22,24,26,-1,-1,-1,-1,-1,-1,-1,-1,-1,-1,-1,-1],"split_conditions":[3E0,7.75E1,2.8E1,3E0,1E0,1.25E1,3.5E1,3E0,1E0,2E0,-1.9480243E-1,7.3581815E-2,6E0,3.333E1,3E0,-1.6565468E-2,1.8679043E-2,-5.1953755E-3,1.3425659E-1,6.487246E-2,-6.542543E-2,-1.5628442E-1,8.217095E-2,2.6491083E-2,2.0548238E-1,-1.3627711E-1,-6.663868E-3],"split_indices":[4,1,1,3,0,1,1,7,4,3,0,0,3,1,5,0,0,0,0,0,0,0,0,0,0,0,0],"split_type":[0,0,0,0,0,0,0,0,0,0,0,0,0,0,0,0,0,0,0,0,0,0,0,0,0,0,0],"sum_hessian":[1.7745149E3,9.66011E2,8.0850385E2,9.171264E2,4.8884552E1,7.544175E1,7.3306213E2,7.928803E2,1.2424614E2,3.401929E1,1.4865261E1,1.3487045E1,6.1954704E1,1.1657267E2,6.1648944E2,3.2617102E2,4.6670926E2,6.2871864E1,6.1374275E1,1.4302739E1,1.9716553E1,5.109191E1,1.0862791E1,9.755626E1,1.901641E1,2.6493212E1,5.899962E2],"tree_param":{"num_deleted":"0","num_feature":"8","num_nodes":"27","size_leaf_vector":"1"}},{"base_weights":[3.4281926E-3,5.060357E-2,-1.06563985E-1,-1.6900083E-2,1.4378588E-1,-1.9006035E-1,-3.9423384E-2,1.6184818E-2,-1.8150865E-1,5.2598447E-1,-1.5373163E-1,-2.79591E-3,1.7280658E-1,-1.5227188E-1,8.968429E-2,-1.2139497E-1,-3.8644115E-3],"categories":[],"categories_nodes":[],"categories_segments":[],"categories_sizes":[],"default_left":[0,0,0,0,0,0,0,0,0,0,0,0,0,0,0,0,0],"id":51,"left_children":[1,3,5,7,-1,-1,9,11,-1,13,15,-1,-1,-1,-1,-1,-1],"loss_changes":[9.132516E0,9.657049E1,5.2968235E1,5.8343864E1,0E0,0E0,3.283869E1,6.537242E1,0E0,3.6616154E1,4.445355E1,0E0,0E0,0E0,0E0,0E0,0E0],"parents":[2147483647,0,0,1,1,2,2,3,3,6,6,7,7,9,9,10,10],"right_children":[2,4,6,8,-1,-1,10,12,-1,14,16,-1,-1,-1,-1,-1,-1],"split_conditions":[5.75E1,5.6E1,6E1,5.5E1,1.4378588E-1,-1.9006035E-1,2E0,5.333E1,-1.8150865E-1,1E0,6.333E1,-2.79591E-3,1.7280658E-1,-1.5227188E-1,8.968429E-2,-1.2139497E-1,-3.8644115E-3],"split_indices":[1,1,1,1,0,0,3,1,0,3,1,0,0,0,0,0,0],"split_type":[0,0,0,0,0,0,0,0,0,0,0,0,0,0,0,0,0],"sum_hessian":[1.7577577E3,1.2305654E3,5.271922E2,1.1639869E3,6.657853E1,2.1573292E1,5.0561893E2,1.1401422E3,2.3844679E1,8.436358E1,4.2125534E2,1.1105745E3,2.956776E1,8.941797E0,7.5421776E1,5.0524117E1,3.7073123E2],"tree_param":{"num_deleted":"0","num_feature":"8","num_nodes":"17","size_leaf_vector":"1"}},{"base_weights":[7.3714433E-3,1.5941426E-1,-1.7758636E-2,-3.5325E-2,9.059228E-1,-1.374593E-1,2.4803521E-2,1.3491668E-1,-1.5456852E-1,1.3328171E-1,6.18751E-1,8.4646076E-1,-1.2905927E-2,4.2320058E-2,-8.3441086E-2,1.1790941E-1,4.2162347E-3,1.294245E-1,8.1485815E-2,-7.9078645E-2,2.0104076E-3],"categories":[],"categories_nodes":[],"categories_segments":[],"categories_sizes":[],"default_left":[0,0,0,0,0,0,0,0,0,0,0,0,0,0,0,0,0,0,0,0,0],"id":52,"left_children":[1,3,5,7,9,-1,11,13,-1,-1,15,17,19,-1,-1,-1,-1,-1,-1,-1,-1],"loss_changes":[6.670376E0,3.6032196E1,7.278673E1,4.2794865E1,2.4357948E0,0E0,4.4803917E1,3.28154E1,0E0,0E0,5.328454E0,1.6512527E0,2.6999277E1,0E0,0E0,0E0,0E0,0E0,0E0,0E0,0E0],"parents":[2147483647,0,0,1,1,2,2,3,3,4,4,6,6,7,7,10,10,11,11,12,12],"right_children":[2,4,6,8,10,-1,12,14,-1,-1,16,18,20,-1,-1,-1,-1,-1,-1,-1,-1],"split_conditions":[2.5E1,2.333E1,2.8E1,2.25E1,1E0,-1.374593E-1,3E1,3E0,-1.5456852E-1,1.3328171E-1,2E0,3E0,3.2E1,4.2320058E-2,-8.3441086E-2,1.1790941E-1,4.2162347E-3,1.294245E-1,8.1485815E-2,-7.9078645E-2,2.0104076E-3],"split_indices":[1,1,1,1,0,0,1,4,0,0,2,6,1,0,0,0,0,0,0,0,0],"split_type":[0,0,0,0,0,0,0,0,0,0,0,0,0,0,0,0,0,0,0,0,0],"sum_hessian":[1.7438678E3,2.4651472E2,1.497353E3,1.9634377E2,5.017095E1,5.281903E1,1.444534E3,1.739603E2,2.2383472E1,2.6730673E1,2.3440279E1,6.2351017E1,1.382183E3,1.3806378E2,3.5896523E1,1.3795223E1,9.645056E0,2.2106653E1,4.0244366E1,5.9343822E1,1.3228391E3],"tree_param":{"num_deleted":"0","num_feature":"8","num_nodes":"21","size_leaf_vector":"1"}},{"base_weights":[9.6151064E-4,4.3537298E-1,-9.302846E-3,-2.8291923E-1,1.5279698E-1,-1.6343746E-1,-7.237866E-4,-1.6089714E-1,5.9782516E-2,9.876728E-2,-1.1034566E-2,-1.6816926E-1,3.6214155E-4],"categories":[],"categories_nodes":[],"categories_segments":[],"categories_sizes":[],"default_left":[0,0,0,0,0,0,0,0,0,0,0,0,0],"id":53,"left_children":[1,3,5,7,-1,-1,9,-1,-1,-1,11,-1,-1],"loss_changes":[7.6998944E0,2.4806873E1,1.9801163E1,1.9778326E1,0E0,0E0,1.4421938E1,0E0,0E0,0E0,3.2855305E1,0E0,0E0],"parents":[2147483647,0,0,1,1,2,2,3,3,6,6,10,10],"right_children":[2,4,6,8,-1,-1,10,-1,-1,-1,12,-1,-1],"split_conditions":[1.5E1,1.333E1,1.6E1,3E0,1.5279698E-1,-1.6343746E-1,1.75E1,-1.6089714E-1,5.9782516E-2,9.876728E-2,2E1,-1.6816926E-1,3.6214155E-4],"split_indices":[1,1,1,7,0,0,1,0,0,0,1,0,0],"split_type":[0,0,0,0,0,0,0,0,0,0,0,0,0],"sum_hessian":[1.724738E3,3.875949E1,1.6859785E3,2.1433718E1,1.7325773E1,9.411579E0,1.6765669E3,8.729897E0,1.2703821E1,1.9422209E1,1.6571447E3,1.534718E1,1.6417975E3],"tree_param":{"num_deleted":"0","num_feature":"8","num_nodes":"13","size_leaf_vector":"1"}},{"base_weights":[4.7536963E-3,1.6329713E-1,-2.3770958E-2,5.1992E-1,2.85814E-2,4.8378348E-1,-3.507299E-2,1.2811409E-1,3.8377607E-1,5.0030416E-1,-1.5729976E-1,1.1365669E-1,1.1989696E-2,-2.965301E-1,6.3162935E-3,2.2023806E-2,6.274945E-2,1.0769757E-2,9.288964E-2,-5.2070085E-2,5.598299E-2,-1.0649577E-1,-1.7699443E-2,9.5670395E-2,-1.3623573E-3],"categories":[],"categories_nodes":[],"categories_segments":[],"categories_sizes":[],"default_left":[0,0,0,0,0,0,0,0,0,0,0,0,0,0,0,0,0,0,0,0,0,0,0,0,0],"id":54,"left_children":[1,3,5,7,9,11,13,-1,15,17,19,-1,-1,21,23,-1,-1,-1,-1,-1,-1,-1,-1,-1,-1],"loss_changes":[7.778287E0,1.2583239E1,8.381457E0,5.0196304E0,1.6879646E1,5.6694903E0,1.5445634E1,0E0,1.6024389E0,6.2171316E0,2.4711258E1,0E0,0E0,1.7128603E1,1.7568865E1,0E0,0E0,0E0,0E0,0E0,0E0,0E0,0E0,0E0,0E0],"parents":[2147483647,0,0,1,1,2,2,3,3,4,4,5,5,6,6,8,8,9,9,10,10,13,13,14,14],"right_children":[2,4,6,8,10,12,14,-1,16,18,20,-1,-1,22,24,-1,-1,-1,-1,-1,-1,-1,-1,-1,-1],"split_conditions":[3E0,3E0,2E0,1E0,1E0,4E0,3E0,1.2811409E-1,2E0,1E0,3E0,1.1365669E-1,1.1989696E-2,2E0,2E0,2.2023806E-2,6.274945E-2,1.0769757E-2,9.288964E-2,-5.2070085E-2,5.598299E-2,-1.0649577E-1,-1.7699443E-2,9.5670395E-2,-1.3623573E-3],"split_indices":[2,6,5,3,4,2,5,0,4,3,3,0,0,3,7,0,0,0,0,0,0,0,0,0,0],"split_type":[0,0,0,0,0,0,0,0,0,0,0,0,0,0,0,0,0,0,0,0,0,0,0,0,0],"sum_hessian":[1.7179026E3,2.611575E2,1.4567451E3,7.07415E1,1.90416E2,3.072934E1,1.4260157E3,1.2345636E1,5.8395866E1,5.3297523E1,1.3711847E2,1.2986948E1,1.7742392E1,1.9396281E2,1.232053E3,2.5743803E1,3.265206E1,2.2354382E1,3.0943144E1,9.495598E1,4.216249E1,3.70878E1,1.5687502E2,2.575269E1,1.2063003E3],"tree_param":{"num_deleted":"0","num_feature":"8","num_nodes":"25","size_leaf_vector":"1"}},{"base_weights":[8.882232E-3,1.4909282E-1,-1.588657E-2,2.1601576E-1,-4.6395782E-1,-3.7044808E-1,-2.9672293E-3,1.1403947E-1,1.0327542E0,7.163857E-3,-1.6423076E-1,4.6789322E-2,-5.3524774E-1,2.2062746E-1,-2.8613744E-2,6.5091975E-2,-1.1436391E-2,1.657969E-1,7.9805315E-2,-1.3746011E-1,-3.460403E-2,4.475673E-2,-1.806796E-1,-3.9616268E-2,2.221304E-3],"categories":[],"categories_nodes":[],"categories_segments":[],"categories_sizes":[],"default_left":[0,0,0,0,0,0,0,0,0,0,0,0,0,0,0,0,0,0,0,0,0,0,0,0,0],"id":55,"left_children":[1,3,5,7,9,11,13,15,17,-1,-1,-1,19,21,23,-1,-1,-1,-1,-1,-1,-1,-1,-1,-1],"loss_changes":[6.0096116E0,1.076881E1,6.7370687E0,1.9440842E1,1.2597408E1,6.749347E0,8.152174E0,1.9273241E1,2.372343E0,0E0,0E0,0E0,6.157958E0,4.056757E1,1.843433E1,0E0,0E0,0E0,0E0,0E0,0E0,0E0,0E0,0E0,0E0],"parents":[2147483647,0,0,1,1,2,2,3,3,4,4,5,5,6,6,7,7,8,8,12,12,13,13,14,14],"right_children":[2,4,6,8,10,12,14,16,18,-1,-1,-1,20,22,24,-1,-1,-1,-1,-1,-1,-1,-1,-1,-1],"split_conditions":[3E0,3E0,1E0,3E0,3E0,3E0,1E0,3E0,2E0,7.163857E-3,-1.6423076E-1,4.6789322E-2,3E0,5E0,3E0,6.5091975E-2,-1.1436391E-2,1.657969E-1,7.9805315E-2,-1.3746011E-1,-3.460403E-2,4.475673E-2,-1.806796E-1,-3.9616268E-2,2.221304E-3],"split_indices":[2,4,3,3,7,6,4,6,7,0,0,0,7,2,5,0,0,0,0,0,0,0,0,0,0],"split_type":[0,0,0,0,0,0,0,0,0,0,0,0,0,0,0,0,0,0,0,0,0,0,0,0,0],"sum_hessian":[1.7286046E3,2.586906E2,1.4699141E3,2.3387302E2,2.4817608E1,5.0606144E1,1.4193079E3,2.0902852E2,2.4844486E1,1.6464508E1,8.353102E0,8.699724E0,4.1906418E1,1.451834E2,1.2741245E3,6.761799E1,1.4141054E2,1.0770577E1,1.4073909E1,1.0614294E1,3.1292126E1,1.3400966E2,1.1173749E1,1.7014574E2,1.1039788E3],"tree_param":{"num_deleted":"0","num_feature":"8","num_nodes":"25","size_leaf_vector":"1"}},{"base_weights":[-4.845494E-3,2.411051E-2,-1.4120977E-1,1.4298445E-1,-2.4851082E-2,-5.740967E-1,-3.095438E-2,3.2330465E-2,1.0275049E0,-1.5813567E-1,4.0677384E-2,-8.1373495E-1,6.2157486E-2,1.4647011E-1,-1.4025094E-1,8.827781E-3,-1.6456622E-1,7.062621E-2,1.3429497E-1,1.8589321E-1,-3.2502986E-3,-1.3377132E-1,-4.0271778E-2,-1.474485E-1,-5.1697595E-3],"categories":[],"categories_nodes":[],"categories_segments":[],"categories_sizes":[],"default_left":[0,0,0,0,0,0,0,0,0,0,0,0,0,0,0,0,0,0,0,0,0,0,0,0,0],"id":56,"left_children":[1,3,5,7,9,11,13,15,17,-1,19,21,-1,-1,23,-1,-1,-1,-1,-1,-1,-1,-1,-1,-1],"loss_changes":[6.690386E0,8.139283E0,1.4144587E1,3.9889397E1,8.49906E1,1.6303398E1,3.3064392E1,2.18312E1,1.3027115E0,0E0,9.818671E1,6.993252E0,0E0,0E0,2.3365746E1,0E0,0E0,0E0,0E0,0E0,0E0,0E0,0E0,0E0,0E0],"parents":[2147483647,0,0,1,1,2,2,3,3,4,4,5,5,6,6,7,7,8,8,10,10,11,11,14,14],"right_children":[2,4,6,8,10,12,14,16,18,-1,20,22,-1,-1,24,-1,-1,-1,-1,-1,-1,-1,-1,-1,-1],"split_conditions":[4E0,3.25E1,4E1,3.2E1,3.333E1,6E0,4.25E1,5E0,4E0,-1.5813567E-1,3.5E1,3.333E1,6.2157486E-2,1.4647011E-1,3E0,8.827781E-3,-1.6456622E-1,7.062621E-2,1.3429497E-1,1.8589321E-1,-3.2502986E-3,-1.3377132E-1,-4.0271778E-2,-1.474485E-1,-5.1697595E-3],"split_indices":[4,1,1,1,1,3,1,2,2,0,1,1,0,0,7,0,0,0,0,0,0,0,0,0,0],"split_type":[0,0,0,0,0,0,0,0,0,0,0,0,0,0,0,0,0,0,0,0,0,0,0,0,0],"sum_hessian":[1.6923347E3,1.396668E3,2.9566666E2,4.0682446E2,9.8984357E2,5.907897E1,2.3658769E2,3.6260352E2,4.4220963E1,4.6210182E1,9.4363336E2,4.8728596E1,1.0350377E1,1.7908918E1,2.1867877E2,3.5317764E2,9.425857E0,1.0034343E1,3.418662E1,3.9259636E1,9.043737E2,2.8417873E1,2.0310722E1,1.6578772E1,2.0209999E2],"tree_param":{"num_deleted":"0","num_feature":"8","num_nodes":"25","size_leaf_vector":"1"}},{"base_weights":[1.1750241E-2,3.4018517E-1,3.9072144E-3,9.418315E-2,1.4329253E-1,1.7890485E-1,-1.4779247E-2,2.6515566E-2,1.168132E-2,-1.8081705E-1,3.7076813E-1,-3.0882147E-1,1.7135743E-2,-1.587368E-1,1.6890554E-2,1.2387561E-1,2.6368229E-2,-6.273357E-2,1.06905006E-1,6.441751E-2,7.476174E-4],"categories":[],"categories_nodes":[],"categories_segments":[],"categories_sizes":[],"default_left":[0,0,0,0,0,0,0,0,0,0,0,0,0,0,0,0,0,0,0,0,0],"id":57,"left_children":[1,3,5,-1,7,9,11,-1,-1,13,15,17,19,-1,-1,-1,-1,-1,-1,-1,-1],"loss_changes":[4.393592E0,3.427693E0,5.455861E0,0E0,8.0352426E-2,1.1183201E1,1.4154245E1,0E0,0E0,2.1422272E1,1.0278551E1,3.9813046E1,7.7499585E0,0E0,0E0,0E0,0E0,0E0,0E0,0E0,0E0],"parents":[2147483647,0,0,1,1,2,2,4,4,5,5,6,6,9,9,10,10,11,11,12,12],"right_children":[2,4,6,-1,8,10,12,-1,-1,14,16,18,20,-1,-1,-1,-1,-1,-1,-1,-1],"split_conditions":[2E0,1E0,3E0,9.418315E-2,3E0,2E0,3E0,2.6515566E-2,1.168132E-2,2E0,1E0,3E0,2E0,-1.587368E-1,1.6890554E-2,1.2387561E-1,2.6368229E-2,-6.273357E-2,1.06905006E-1,6.441751E-2,7.476174E-4],"split_indices":[5,4,6,0,2,7,5,0,0,4,3,7,7,0,0,0,0,0,0,0,0],"split_type":[0,0,0,0,0,0,0,0,0,0,0,0,0,0,0,0,0,0,0,0,0],"sum_hessian":[1.7051047E3,3.868042E1,1.6664243E3,1.0697835E1,2.7982586E1,1.5986456E2,1.5065598E3,8.463432E0,1.9519154E1,5.5629303E1,1.0423525E2,1.465746E2,1.3599852E3,1.1390966E1,4.423834E1,1.7640118E1,8.659514E1,1.2455459E2,2.2020018E1,2.6367746E1,1.3336174E3],"tree_param":{"num_deleted":"0","num_feature":"8","num_nodes":"21","size_leaf_vector":"1"}},{"base_weights":[-7.4557643E-3,2.5545388E-2,-1.4144044E-1,-3.4423687E-3,1.595618E-1,-2.8965092E-1,-1.03736725E-2,2.5186166E-2,-2.1831566E-1,-3.7166816E-1,2.1192087E-1,-2.6315397E-3,1.5346944E-1,-2.0468676E-1,1.08140595E-2,4.0999193E-2,-1.4032257E-1],"categories":[],"categories_nodes":[],"categories_segments":[],"categories_sizes":[],"default_left":[0,0,0,0,0,0,0,0,0,0,0,0,0,0,0,0,0],"id":58,"left_children":[1,3,5,7,-1,-1,9,11,-1,13,15,-1,-1,-1,-1,-1,-1],"loss_changes":[7.4250226E0,5.154013E1,1.00001755E2,6.943845E1,0E0,0E0,2.539109E1,7.8157616E1,0E0,7.559877E1,3.6929413E1,0E0,0E0,0E0,0E0,0E0,0E0],"parents":[2147483647,0,0,1,1,2,2,3,3,6,6,7,7,9,9,10,10],"right_children":[2,4,6,8,-1,-1,10,12,-1,14,16,-1,-1,-1,-1,-1,-1],"split_conditions":[6.75E1,6.667E1,6.8E1,6.5E1,1.595618E-1,-2.8965092E-1,1E0,6.333E1,-2.1831566E-1,7.667E1,8.4E1,-2.6315397E-3,1.5346944E-1,-2.0468676E-1,1.08140595E-2,4.0999193E-2,-1.4032257E-1],"split_indices":[1,1,1,1,0,0,0,1,0,1,1,0,0,0,0,0,0],"split_type":[0,0,0,0,0,0,0,0,0,0,0,0,0,0,0,0,0],"sum_hessian":[1.6772429E3,1.3464868E3,3.3075616E2,1.3186112E3,2.7875637E1,1.6787754E1,3.139684E2,1.2994408E3,1.9170359E1,1.1931178E2,1.9465663E2,1.2537014E3,4.5739445E1,2.963731E1,8.967447E1,1.783915E2,1.6265137E1],"tree_param":{"num_deleted":"0","num_feature":"8","num_nodes":"17","size_leaf_vector":"1"}},{"base_weights":[-2.1886755E-2,-1.02688834E-1,4.7627717E-2,3.315756E-2,-6.064657E-1,1.009646E0,-4.257961E-3,-4.148521E-2,1.3855879E-1,-1.6825658E-1,-1.5309438E-1,8.493374E-2,1.3666824E-1,-1.4241266E-1,2.927077E-2,6.348042E-3,-1.0849656E-1,-1.7039278E-1,1.9539125E-2,1.4850262E-1,-1.0372966E-3],"categories":[],"categories_nodes":[],"categories_segments":[],"categories_sizes":[],"default_left":[0,0,0,0,0,0,0,0,0,0,0,0,0,0,0,0,0,0,0,0,0],"id":59,"left_children":[1,3,5,7,9,11,13,15,-1,17,-1,-1,-1,-1,19,-1,-1,-1,-1,-1,-1],"loss_changes":[9.411859E0,5.3046978E1,4.4976326E1,5.182504E1,4.9089672E1,1.019104E0,3.4363144E1,4.770047E1,0E0,4.314236E1,0E0,0E0,0E0,0E0,3.874903E1,0E0,0E0,0E0,0E0,0E0,0E0],"parents":[2147483647,0,0,1,1,2,2,3,3,4,4,5,5,6,6,7,7,9,9,14,14],"right_children":[2,4,6,8,10,12,14,16,-1,18,-1,-1,-1,-1,20,-1,-1,-1,-1,-1,-1],"split_conditions":[4.333E1,3.75E1,4.5E1,3.667E1,3E0,1E0,4.667E1,3.5E1,1.3855879E-1,4E1,-1.5309438E-1,8.493374E-2,1.3666824E-1,-1.4241266E-1,4.75E1,6.348042E-3,-1.0849656E-1,-1.7039278E-1,1.9539125E-2,1.4850262E-1,-1.0372966E-3],"split_indices":[1,1,1,1,3,0,1,1,0,1,0,0,0,0,1,0,0,0,0,0,0],"split_type":[0,0,0,0,0,0,0,0,0,0,0,0,0,0,0,0,0,0,0,0,0],"sum_hessian":[1.6735688E3,7.737055E2,8.9986334E2,6.101919E2,1.6351358E2,4.5009995E1,8.5485333E2,5.735227E2,3.666919E1,1.0048988E2,6.3023685E1,1.6846226E1,2.816377E1,2.2266745E1,8.325866E2,5.1817194E2,5.535081E1,2.0141764E1,8.034812E1,2.405183E1,8.085347E2],"tree_param":{"num_deleted":"0","num_feature":"8","num_nodes":"21","size_leaf_vector":"1"}},{"base_weights":[-9.364918E-3,-1.0954083E-1,3.0689785E-2,2.2054005E-2,-1.5095411E-1,1.6928953E-1,-2.4536414E-2,-9.023712E-2,9.1854656E-1,-1.5419382E-1,2.2414064E-2,8.529643E-3,-1.5114576E-1,8.535208E-2,1.2415705E-1,1.14879146E-1,-2.5111095E-3],"categories":[],"categories_nodes":[],"categories_segments":[],"categories_sizes":[],"default_left":[0,0,0,0,0,0,0,0,0,0,0,0,0,0,0,0,0],"id":60,"left_children":[1,3,5,7,-1,-1,9,11,13,-1,15,-1,-1,-1,-1,-1,-1],"loss_changes":[6.6327605E0,7.2271484E1,9.110003E1,4.28969E1,0E0,0E0,6.810851E1,7.280842E1,3.7947464E-1,0E0,4.5273552E1,0E0,0E0,0E0,0E0,0E0,0E0],"parents":[2147483647,0,0,1,1,2,2,3,3,6,6,7,7,8,8,10,10],"right_children":[2,4,6,8,-1,-1,10,12,14,-1,16,-1,-1,-1,-1,-1,-1],"split_conditions":[3.333E1,3.25E1,3.5E1,3.2E1,-1.5095411E-1,1.6928953E-1,3.6E1,3E1,3E0,-1.5419382E-1,3.75E1,8.529643E-3,-1.5114576E-1,8.535208E-2,1.2415705E-1,1.14879146E-1,-2.5111095E-3],"split_indices":[1,1,1,1,0,0,1,1,4,0,1,0,0,0,0,0,0],"split_type":[0,0,0,0,0,0,0,0,0,0,0,0,0,0,0,0,0],"sum_hessian":[1.6509949E3,4.710357E2,1.1799591E3,4.2411487E2,4.6920853E1,4.3859753E1,1.1360994E3,3.777849E2,4.632994E1,3.9305958E1,1.0967935E3,3.3318198E2,4.460295E1,2.0964495E1,2.5365448E1,4.7280453E1,1.0495131E3],"tree_param":{"num_deleted":"0","num_feature":"8","num_nodes":"17","size_leaf_vector":"1"}},{"base_weights":[3.5808017E-3,2.2800101E-2,-1.9212332E-1,-6.6852444E-3,1.143729E0,-2.0308772E-1,3.0428613E-2,1.2747016E-2,-1.8966232E-1,8.972959E-2,1.454839E-1,2.5464565E-1,-1.4465153E-1,-1.0061563E-3,1.4014038E-1,-2.530582E-2,5.6268398E-2],"categories":[],"categories_nodes":[],"categories_segments":[],"categories_sizes":[],"default_left":[0,0,0,0,0,0,0,0,0,0,0,0,0,0,0,0,0],"id":61,"left_children":[1,3,5,7,9,-1,11,13,-1,-1,-1,15,-1,-1,-1,-1,-1],"loss_changes":[6.162484E0,4.9310513E1,4.960438E1,4.5015656E1,2.0064545E-1,0E0,3.645009E1,3.5677746E1,0E0,0E0,0E0,1.1432766E1,0E0,0E0,0E0,0E0,0E0],"parents":[2147483647,0,0,1,1,2,2,3,3,4,4,6,6,7,7,11,11],"right_children":[2,4,6,8,10,-1,12,14,-1,-1,-1,16,-1,-1,-1,-1,-1],"split_conditions":[7.75E1,7.6E1,8E1,7.5E1,7.667E1,